<?xml version="1.0"?>
<opencv_storage>
<cascade>
  <stageType>BOOST</stageType>
  <featureType>LBP</featureType>
  <height>50</height>
  <width>50</width>
  <stageParams>
    <boostType>GAB</boostType>
    <minHitRate>9.9900001287460327e-01</minHitRate>
    <maxFalseAlarm>5.0000000000000000e-01</maxFalseAlarm>
    <weightTrimRate>9.4999999999999996e-01</weightTrimRate>
    <maxDepth>1</maxDepth>
    <maxWeakCount>100</maxWeakCount></stageParams>
  <featureParams>
    <maxCatCount>256</maxCatCount>
    <featSize>1</featSize></featureParams>
  <stageNum>15</stageNum>
  <stages>
    <!-- stage 0 -->
    <_>
      <maxWeakCount>5</maxWeakCount>
      <stageThreshold>-1.3270990848541260e+00</stageThreshold>
      <weakClassifiers>
        <_>
          <internalNodes>
            0 -1 62 -789393200 -72130309 -753805899 -1153699365
            -583338829 -73154082 -1779183109 -72623937</internalNodes>
          <leafValues>
            -7.6652127504348755e-01 4.9707603454589844e-01</leafValues></_>
        <_>
          <internalNodes>
            0 -1 15 -801445888 -158181294 268845849 1060569691
            -937066336 2002229908 34282347 2139040379</internalNodes>
          <leafValues>
            -7.8083598613739014e-01 3.4041175246238708e-01</leafValues></_>
        <_>
          <internalNodes>
            0 -1 60 -662645552 -604842764 1124251728 -675392448
            -1434007096 -1685265782 -939261568 -546573553</internalNodes>
          <leafValues>
            -6.0487580299377441e-01 4.2807808518409729e-01</leafValues></_>
        <_>
          <internalNodes>
            0 -1 65 -222329293 2136939375 -1405067727 1427132723
            473560375 -1344664825 9491172 293550047</internalNodes>
          <leafValues>
            -6.1438918113708496e-01 4.0637224912643433e-01</leafValues></_>
        <_>
          <internalNodes>
            0 -1 160 -565459696 1091248132 755159349 -2130640516
            92980384 1493401728 2248707 421216267</internalNodes>
          <leafValues>
            -5.5782270431518555e-01 4.1876173019409180e-01</leafValues></_></weakClassifiers></_>
    <!-- stage 1 -->
    <_>
      <maxWeakCount>8</maxWeakCount>
      <stageThreshold>-1.7201849222183228e+00</stageThreshold>
      <weakClassifiers>
        <_>
          <internalNodes>
            0 -1 82 -320884953 -545309931 -444757185 -551612629
            -879046993 -373512550 1259047855 -1061957</internalNodes>
          <leafValues>
            -7.0124483108520508e-01 4.8810380697250366e-01</leafValues></_>
        <_>
          <internalNodes>
            0 -1 109 -1376257 -6294564 1603077429 -7732988 241185722
            -1157461509 507250856 1477181832</internalNodes>
          <leafValues>
            -6.8123251199722290e-01 3.3645462989807129e-01</leafValues></_>
        <_>
          <internalNodes>
            0 -1 58 -197082896 2041752638 -728671233 925606719
            1371720177 -542709570 1261313791 -1623520605</internalNodes>
          <leafValues>
            -6.4590245485305786e-01 4.0353795886039734e-01</leafValues></_>
        <_>
          <internalNodes>
            0 -1 61 -57345836 -73485572 922939645 -1616689148 -539178786
            -14694247 1308674060 -1674786554</internalNodes>
          <leafValues>
            -5.5985176563262939e-01 3.5373058915138245e-01</leafValues></_>
        <_>
          <internalNodes>
            0 -1 122 2069691100 -1074262130 1552106700 -1413876443
            -2144137004 -211802048 -1173156727 -82897093</internalNodes>
          <leafValues>
            -5.0688666105270386e-01 4.0220817923545837e-01</leafValues></_>
        <_>
          <internalNodes>
            0 -1 2 -1022690824 -1392340852 -867310099 -1078595044
            -905012817 1578811441 1096538591 353881419</internalNodes>
          <leafValues>
            -4.7590479254722595e-01 4.4711154699325562e-01</leafValues></_>
        <_>
          <internalNodes>
            0 -1 33 -101000873 -1074200496 -1161690599 1378353376
            -426838987 -21049514 -1488591553 -205867925</internalNodes>
          <leafValues>
            -4.2432045936584473e-01 4.6189448237419128e-01</leafValues></_>
        <_>
          <internalNodes>
            0 -1 14 -993604817 -487337709 14129236 1892328162 582943663
            -543488873 1495256788 -246156357</internalNodes>
          <leafValues>
            -4.6265915036201477e-01 4.3855974078178406e-01</leafValues></_></weakClassifiers></_>
    <!-- stage 2 -->
    <_>
      <maxWeakCount>9</maxWeakCount>
      <stageThreshold>-1.4142783880233765e+00</stageThreshold>
      <weakClassifiers>
        <_>
          <internalNodes>
            0 -1 79 -3672161 -40926959 -49967971 -584218851 -490018421
            -539240007 -810578501 -28737</internalNodes>
          <leafValues>
            -6.0456275939941406e-01 4.9682107567787170e-01</leafValues></_>
        <_>
          <internalNodes>
            0 -1 64 -191824656 -705593985 -774844613 1037782879
            -1403126088 1439083233 522357183 264228094</internalNodes>
          <leafValues>
            -6.2957102060317993e-01 2.8511127829551697e-01</leafValues></_>
        <_>
          <internalNodes>
            0 -1 59 2006390647 2000558871 -333160843 1410347345
            -1161890329 -1074054001 53488 224359023</internalNodes>
          <leafValues>
            -5.8420175313949585e-01 3.0572187900543213e-01</leafValues></_>
        <_>
          <internalNodes>
            0 -1 21 -486561233 -1601388258 469904502 -497934232
            1686774127 102023179 -207404297 -135565348</internalNodes>
          <leafValues>
            -4.8712986707687378e-01 3.8572642207145691e-01</leafValues></_>
        <_>
          <internalNodes>
            0 -1 110 -2136029823 4248464 1655423637 -37684848 -861215576
            -1518288491 -1465779778 -72460801</internalNodes>
          <leafValues>
            -5.1874089241027832e-01 3.6880424618721008e-01</leafValues></_>
        <_>
          <internalNodes>
            0 -1 51 -77007652 973928396 -737882379 994019365 -761468241
            -540353796 595724424 1048086048</internalNodes>
          <leafValues>
            -6.3254576921463013e-01 2.9539632797241211e-01</leafValues></_>
        <_>
          <internalNodes>
            0 -1 24 -186458286 -182815909 1346426061 832131662
            -1719186735 -499923302 994675135 2136964991</internalNodes>
          <leafValues>
            -5.3672260046005249e-01 3.4089806675910950e-01</leafValues></_>
        <_>
          <internalNodes>
            0 -1 77 -92868737 -1179843 2129086477 1330318414 540079546
            -277676077 677392418 -1344572182</internalNodes>
          <leafValues>
            -4.1718453168869019e-01 4.4608545303344727e-01</leafValues></_>
        <_>
          <internalNodes>
            0 -1 43 -269287417 684253326 1343354364 -1827941941
            -341116412 -2121758638 1621995760 -13172821</internalNodes>
          <leafValues>
            -5.3905689716339111e-01 3.3122161030769348e-01</leafValues></_></weakClassifiers></_>
    <!-- stage 3 -->
    <_>
      <maxWeakCount>11</maxWeakCount>
      <stageThreshold>-1.3834291696548462e+00</stageThreshold>
      <weakClassifiers>
        <_>
          <internalNodes>
            0 -1 91 -26235001 -221041906 -26113669 -101077187 -875892757
            -5578274 -1881878645 -2101249</internalNodes>
          <leafValues>
            -6.4067578315734863e-01 3.1345352530479431e-01</leafValues></_>
        <_>
          <internalNodes>
            0 -1 132 1356647662 -743121548 -418524683 -40985792
            1433486783 -1221571661 196739758 -4537718</internalNodes>
          <leafValues>
            -5.2733975648880005e-01 3.2357388734817505e-01</leafValues></_>
        <_>
          <internalNodes>
            0 -1 46 -101449837 1442660436 -1431278559 1357930544
            -546120133 -33025 -1172137685 -73667246</internalNodes>
          <leafValues>
            -3.9109763503074646e-01 4.2320859432220459e-01</leafValues></_>
        <_>
          <internalNodes>
            0 -1 76 -72154342 -1256172526 1367860727 -4259436 479286168
            -41920124 2072234493 -307289878</internalNodes>
          <leafValues>
            -4.0753057599067688e-01 4.0620329976081848e-01</leafValues></_>
        <_>
          <internalNodes>
            0 -1 119 -723853576 -39266971 -1022666765 -777515872
            2093634955 984490914 1478496690 2095480096</internalNodes>
          <leafValues>
            -5.8496820926666260e-01 2.9873216152191162e-01</leafValues></_>
        <_>
          <internalNodes>
            0 -1 136 782765712 782641682 1846364931 -1002065455
            -1700842639 -2145603320 -1482441772 -272991536</internalNodes>
          <leafValues>
            -6.0202741622924805e-01 2.6254355907440186e-01</leafValues></_>
        <_>
          <internalNodes>
            0 -1 127 1779366654 -581378827 1426363892 -1683321954
            1009031248 -1366794475 -1190125172 -1683029093</internalNodes>
          <leafValues>
            -5.2777510881423950e-01 3.2482942938804626e-01</leafValues></_>
        <_>
          <internalNodes>
            0 -1 41 -1937598544 -1362825024 -787064717 -29063934
            -1552950619 -1533410413 -1911436297 -1977228207</internalNodes>
          <leafValues>
            -5.1852715015411377e-01 3.2803958654403687e-01</leafValues></_>
        <_>
          <internalNodes>
            0 -1 8 -1043339633 -2037721721 1088017910 -338280432
            -421831349 753798 1099690295 -710968961</internalNodes>
          <leafValues>
            -4.8615133762359619e-01 3.3194974064826965e-01</leafValues></_>
        <_>
          <internalNodes>
            0 -1 54 -656748075 2026741293 2115338975 489010108
            -914322749 2050464886 1870694543 1846139119</internalNodes>
          <leafValues>
            -4.1576406359672546e-01 4.1951230168342590e-01</leafValues></_>
        <_>
          <internalNodes>
            0 -1 30 687474791 -1282522225 1107514495 -1467323302
            -243596148 -821720561 -754353936 -21604422</internalNodes>
          <leafValues>
            -4.7170090675354004e-01 3.5632574558258057e-01</leafValues></_></weakClassifiers></_>
    <!-- stage 4 -->
    <_>
      <maxWeakCount>10</maxWeakCount>
      <stageThreshold>-1.4034621715545654e+00</stageThreshold>
      <weakClassifiers>
        <_>
          <internalNodes>
            0 -1 92 -337645785 -41951461 -212495049 -4197585 -1889538057
            -272719439 -544486453 -1052689</internalNodes>
          <leafValues>
            -6.3396102190017700e-01 2.6724714040756226e-01</leafValues></_>
        <_>
          <internalNodes>
            0 -1 101 -252383497 -711412953 -268861579 -2080361211
            -1598978393 -798499977 116765631 -80240069</internalNodes>
          <leafValues>
            -4.3462419509887695e-01 3.7815383076667786e-01</leafValues></_>
        <_>
          <internalNodes>
            0 -1 72 1429566933 657095590 -1853031491 -1379112047
            2139059131 1059203470 -843159397 155229944</internalNodes>
          <leafValues>
            -5.8281087875366211e-01 2.6061159372329712e-01</leafValues></_>
        <_>
          <internalNodes>
            0 -1 113 -1138205488 -759257488 710316919 -388058224
            -81886228 -7356265 -108484668 -1373237231</internalNodes>
          <leafValues>
            -6.4462512731552124e-01 2.5803613662719727e-01</leafValues></_>
        <_>
          <internalNodes>
            0 -1 98 -1719667228 -574263459 1428228080 -91267405
            316919953 -178055625 1049825573 -1080065381</internalNodes>
          <leafValues>
            -4.7433254122734070e-01 2.9171928763389587e-01</leafValues></_>
        <_>
          <internalNodes>
            0 -1 142 -1066345481 -1655374641 -61683201 -225827047
            284182975 1250683023 1078198510 489572064</internalNodes>
          <leafValues>
            -5.3242480754852295e-01 2.9352205991744995e-01</leafValues></_>
        <_>
          <internalNodes>
            0 -1 39 1702847508 -96184352 -1774128642 1223631557
            2110729716 -1765840 165508085 -1673166012</internalNodes>
          <leafValues>
            -5.8955109119415283e-01 2.2183291614055634e-01</leafValues></_>
        <_>
          <internalNodes>
            0 -1 140 -1935536351 202932239 -700579069 -523045621
            -696573601 552307925 1000614167 -1944283787</internalNodes>
          <leafValues>
            -5.9123539924621582e-01 2.7248761057853699e-01</leafValues></_>
        <_>
          <internalNodes>
            0 -1 52 -380317768 832422740 1599514461 416025428 -653544642
            -271937248 -418839025 2071701456</internalNodes>
          <leafValues>
            -5.1585322618484497e-01 2.8649112582206726e-01</leafValues></_>
        <_>
          <internalNodes>
            0 -1 144 1383557059 299026274 -225714919 -1557997744
            2141681928 -91339183 -145176436 -95478454</internalNodes>
          <leafValues>
            -4.2254903912544250e-01 3.7046253681182861e-01</leafValues></_></weakClassifiers></_>
    <!-- stage 5 -->
    <_>
      <maxWeakCount>11</maxWeakCount>
      <stageThreshold>-1.8598514795303345e+00</stageThreshold>
      <weakClassifiers>
        <_>
          <internalNodes>
            0 -1 83 -329275641 -35914413 -136716801 -572916361
            -926226449 -276238182 -74593281 -1056801</internalNodes>
          <leafValues>
            -6.4045721292495728e-01 2.0146968960762024e-01</leafValues></_>
        <_>
          <internalNodes>
            0 -1 55 -761605999 2143077597 -372051719 -644311830
            1939009427 -974071877 1060302264 957463674</internalNodes>
          <leafValues>
            -5.3087764978408813e-01 2.5258901715278625e-01</leafValues></_>
        <_>
          <internalNodes>
            0 -1 12 -433946382 -14827164 -576716865 -1157268836
            684178874 -1339424204 -1948324689 189017856</internalNodes>
          <leafValues>
            -4.5065927505493164e-01 3.0189538002014160e-01</leafValues></_>
        <_>
          <internalNodes>
            0 -1 63 1964503317 26410894 -1880096769 -1349862415
            -730061422 -1189218308 -840448888 -1892694334</internalNodes>
          <leafValues>
            -3.5514986515045166e-01 4.1872540116310120e-01</leafValues></_>
        <_>
          <internalNodes>
            0 -1 40 -393729 -67115275 187597369 335118933 -30671297
            -536883593 -1576993013 -67372069</internalNodes>
          <leafValues>
            -2.9424896836280823e-01 5.2273291349411011e-01</leafValues></_>
        <_>
          <internalNodes>
            0 -1 13 -1060376785 -1025795634 843328724 -229993782
            1175092047 86360302 -502577174 1945621303</internalNodes>
          <leafValues>
            -4.8150455951690674e-01 3.0743664503097534e-01</leafValues></_>
        <_>
          <internalNodes>
            0 -1 88 657926967 -1093201059 -2055152875 -140682735
            185570493 -925709130 998437317 413491313</internalNodes>
          <leafValues>
            -5.3584223985671997e-01 2.9633814096450806e-01</leafValues></_>
        <_>
          <internalNodes>
            0 -1 135 1792191130 867566339 -133299681 -718660933
            -997145443 -1321143451 -1464882501 2101717386</internalNodes>
          <leafValues>
            -4.5240941643714905e-01 3.3100003004074097e-01</leafValues></_>
        <_>
          <internalNodes>
            0 -1 129 -64306939 -1596403068 1646175771 -88050608
            -1422191092 -123038647 -1281955977 -1636670991</internalNodes>
          <leafValues>
            -5.0085133314132690e-01 3.0199530720710754e-01</leafValues></_>
        <_>
          <internalNodes>
            0 -1 165 -1625368813 -1128445713 154324807 -627969809
            -76567280 333040730 2000951696 -1575752794</internalNodes>
          <leafValues>
            -4.2905342578887939e-01 3.3994057774543762e-01</leafValues></_>
        <_>
          <internalNodes>
            0 -1 89 -91300388 -738733060 1897387965 -13662048 1242602427
            -108535159 265062035 -121852799</internalNodes>
          <leafValues>
            -4.0483587980270386e-01 3.7880802154541016e-01</leafValues></_></weakClassifiers></_>
    <!-- stage 6 -->
    <_>
      <maxWeakCount>12</maxWeakCount>
      <stageThreshold>-1.6358730792999268e+00</stageThreshold>
      <weakClassifiers>
        <_>
          <internalNodes>
            0 -1 105 -2101333 1069532057 -644626513 -37885043 -873494097
            -1180778313 2111768975 -1137</internalNodes>
          <leafValues>
            -6.0352134704589844e-01 2.2780454158782959e-01</leafValues></_>
        <_>
          <internalNodes>
            0 -1 49 -35717129 -80080065 -602638379 -1782295179
            -1106195090 -557272112 -1811877167 -304098321</internalNodes>
          <leafValues>
            -3.6442226171493530e-01 3.5568109154701233e-01</leafValues></_>
        <_>
          <internalNodes>
            0 -1 97 2135489981 -46478359 1959344741 1871056652 269662137
            -1216358439 607396024 2061673168</internalNodes>
          <leafValues>
            -4.7170203924179077e-01 2.9496011137962341e-01</leafValues></_>
        <_>
          <internalNodes>
            0 -1 99 -1000085625 23130144 -284835433 -676875286
            -1005555040 -1662263080 -455497526 -271949345</internalNodes>
          <leafValues>
            -3.6283591389656067e-01 3.6443775892257690e-01</leafValues></_>
        <_>
          <internalNodes>
            0 -1 155 -671471019 2113098565 -577112887 2049407771
            -85984683 1163086093 -1080625426 808517479</internalNodes>
          <leafValues>
            -4.1458487510681152e-01 3.2994472980499268e-01</leafValues></_>
        <_>
          <internalNodes>
            0 -1 5 -1444428849 -1953835282 -683465748 -1111594876
            -1062269249 74707131 400193463 1409283583</internalNodes>
          <leafValues>
            -4.4019383192062378e-01 3.2382944226264954e-01</leafValues></_>
        <_>
          <internalNodes>
            0 -1 106 539365681 -1900489035 193370588 -573568582
            786258677 -103247665 -942974491 -1918220860</internalNodes>
          <leafValues>
            -5.1145398616790771e-01 2.9041594266891479e-01</leafValues></_>
        <_>
          <internalNodes>
            0 -1 125 -414487702 2086366911 1511716218 1984111215
            -1875950132 -1328422245 -1164723414 -1168662686</internalNodes>
          <leafValues>
            -4.3270432949066162e-01 3.4694236516952515e-01</leafValues></_>
        <_>
          <internalNodes>
            0 -1 32 -1052586144 -1282418804 2072724227 1354039844
            -452331730 -1026304131 1041398299 953872992</internalNodes>
          <leafValues>
            -5.3232306241989136e-01 2.6652148365974426e-01</leafValues></_>
        <_>
          <internalNodes>
            0 -1 20 -273718403 -537440016 -1356668065 -1045231639
            1870640220 -42994446 -1085482146 -42207886</internalNodes>
          <leafValues>
            -3.6143907904624939e-01 3.8632664084434509e-01</leafValues></_>
        <_>
          <internalNodes>
            0 -1 149 -1874639275 452723414 -2012910801 1917995753
            -175622544 -125910749 -677708974 -386205080</internalNodes>
          <leafValues>
            -4.2153480648994446e-01 3.5056909918785095e-01</leafValues></_>
        <_>
          <internalNodes>
            0 -1 126 -559219695 1032971528 -443300929 1066250664
            -1983075608 -113024696 2122467362 -1392753664</internalNodes>
          <leafValues>
            -5.8133095502853394e-01 2.2787147760391235e-01</leafValues></_></weakClassifiers></_>
    <!-- stage 7 -->
    <_>
      <maxWeakCount>12</maxWeakCount>
      <stageThreshold>-1.5425506830215454e+00</stageThreshold>
      <weakClassifiers>
        <_>
          <internalNodes>
            0 -1 48 -304896225 -136413937 -870936611 -538986177
            -1469083853 -157030024 -808669283 -268456001</internalNodes>
          <leafValues>
            -6.0892295837402344e-01 1.3749243319034576e-01</leafValues></_>
        <_>
          <internalNodes>
            0 -1 131 -76218881 -539434118 -73938913 -67288882
            -1993025283 -551555637 367035055 -576880486</internalNodes>
          <leafValues>
            -3.6460018157958984e-01 3.6409580707550049e-01</leafValues></_>
        <_>
          <internalNodes>
            0 -1 35 -299923193 -1061886593 314094486 -84355350
            1109876090 -5760545 -207232012 -76332814</internalNodes>
          <leafValues>
            -4.1359868645668030e-01 3.1264191865921021e-01</leafValues></_>
        <_>
          <internalNodes>
            0 -1 7 -1481644053 -2033263124 1233640290 382636550
            233546551 68929623 1476107604 1442838009</internalNodes>
          <leafValues>
            -4.8345646262168884e-01 2.5432875752449036e-01</leafValues></_>
        <_>
          <internalNodes>
            0 -1 161 -21006579 24608527 -151261455 2003433333 -209995520
            926891085 -1168504 -75759873</internalNodes>
          <leafValues>
            -3.0236989259719849e-01 4.3157714605331421e-01</leafValues></_>
        <_>
          <internalNodes>
            0 -1 3 1587396814 -86081303 -1433931297 -619508844 668088064
            707958243 1969689541 2063551739</internalNodes>
          <leafValues>
            -4.0577080845832825e-01 3.2425025105476379e-01</leafValues></_>
        <_>
          <internalNodes>
            0 -1 112 753472529 -1534124170 1966209491 -1124080748
            449321908 -1425374064 -1660110595 -1411688307</internalNodes>
          <leafValues>
            -4.3278464674949646e-01 3.4546762704849243e-01</leafValues></_>
        <_>
          <internalNodes>
            0 -1 116 -102855209 823713608 -1157701635 -63246976
            1173839807 -1082302475 -1908499060 -1140855669</internalNodes>
          <leafValues>
            -3.2031172513961792e-01 4.5857119560241699e-01</leafValues></_>
        <_>
          <internalNodes>
            0 -1 123 -922819935 172921033 -197036591 -220280622
            1615947385 -78998846 2065434976 1549979110</internalNodes>
          <leafValues>
            -4.5550477504730225e-01 2.9561281204223633e-01</leafValues></_>
        <_>
          <internalNodes>
            0 -1 96 -620568580 -253774940 1418268561 1596034849
            732669834 898823824 529336251 1974315958</internalNodes>
          <leafValues>
            -4.3396016955375671e-01 3.3362054824829102e-01</leafValues></_>
        <_>
          <internalNodes>
            0 -1 22 -486633689 -1002417345 -997022765 1619849286
            2070635427 -468492246 1927237244 -261367600</internalNodes>
          <leafValues>
            -4.7630167007446289e-01 2.9913139343261719e-01</leafValues></_>
        <_>
          <internalNodes>
            0 -1 47 -23170092 -552554477 -1786716401 816320807
            -1122563552 -1474952794 968569141 259333431</internalNodes>
          <leafValues>
            -6.3404101133346558e-01 2.1993936598300934e-01</leafValues></_></weakClassifiers></_>
    <!-- stage 8 -->
    <_>
      <maxWeakCount>12</maxWeakCount>
      <stageThreshold>-1.6158175468444824e+00</stageThreshold>
      <weakClassifiers>
        <_>
          <internalNodes>
            0 -1 93 -422187217 -1719680590 -204148257 -33697635
            -811613715 -58005479 -79566850 -1049665</internalNodes>
          <leafValues>
            -6.1196106672286987e-01 1.4598539471626282e-01</leafValues></_>
        <_>
          <internalNodes>
            0 -1 138 -13050418 -1089449958 1881395453 -319222652
            -1876915736 -296826405 116623787 -613446998</internalNodes>
          <leafValues>
            -4.4244179129600525e-01 2.8555315732955933e-01</leafValues></_>
        <_>
          <internalNodes>
            0 -1 1 -1899319298 -485612241 -585132137 -644101739
            705156557 1176603843 86103537 73617573</internalNodes>
          <leafValues>
            -5.1861357688903809e-01 2.3325739800930023e-01</leafValues></_>
        <_>
          <internalNodes>
            0 -1 74 1430647809 288932300 556570975 -1074751651
            1559613840 -1109393246 1684512764 -1961892885</internalNodes>
          <leafValues>
            -3.6117058992385864e-01 3.8512763381004333e-01</leafValues></_>
        <_>
          <internalNodes>
            0 -1 103 -150340649 -1116311818 -823177457 -861532470
            405059282 -952107531 483131731 -660643573</internalNodes>
          <leafValues>
            -3.3979135751724243e-01 3.9232638478279114e-01</leafValues></_>
        <_>
          <internalNodes>
            0 -1 42 418536688 2015134924 1358446153 1024921991 334468008
            1099942016 1961533278 456592442</internalNodes>
          <leafValues>
            -6.3097715377807617e-01 2.0200021564960480e-01</leafValues></_>
        <_>
          <internalNodes>
            0 -1 164 -138447753 -941117449 -67207433 -134217737
            -138961033 -1912867369 -1854472284 -628629589</internalNodes>
          <leafValues>
            -3.2342398166656494e-01 4.1707518696784973e-01</leafValues></_>
        <_>
          <internalNodes>
            0 -1 38 -704653729 1901192340 52612961 1666959472 1936118837
            1672458491 990085919 2040051001</internalNodes>
          <leafValues>
            -3.7191802263259888e-01 3.6605113744735718e-01</leafValues></_>
        <_>
          <internalNodes>
            0 -1 18 -1936986525 1077062092 -1065213860 1087805580
            -1661993517 151979179 1390604663 1174360509</internalNodes>
          <leafValues>
            -4.8067095875740051e-01 2.8509342670440674e-01</leafValues></_>
        <_>
          <internalNodes>
            0 -1 147 -1398799147 -562086553 -972947715 -250661189
            -393496355 -1463039479 1021548893 -1976143551</internalNodes>
          <leafValues>
            -4.7072768211364746e-01 2.7958697080612183e-01</leafValues></_>
        <_>
          <internalNodes>
            0 -1 34 -455202277 -291579290 826643207 -523841412 69677878
            -893345784 155255763 -12650526</internalNodes>
          <leafValues>
            -4.0914663672447205e-01 3.2867872714996338e-01</leafValues></_>
        <_>
          <internalNodes>
            0 -1 137 1883302287 839056015 -1069465508 -946518272
            1931029980 -1144905469 2013686472 1991139406</internalNodes>
          <leafValues>
            -4.7408154606819153e-01 2.8935921192169189e-01</leafValues></_></weakClassifiers></_>
    <!-- stage 9 -->
    <_>
      <maxWeakCount>13</maxWeakCount>
      <stageThreshold>-1.5259791612625122e+00</stageThreshold>
      <weakClassifiers>
        <_>
          <internalNodes>
            0 -1 90 2121779175 826267007 -2062034017 532010461 -86843226
            1605423491 -405606929 -1412436801</internalNodes>
          <leafValues>
            -5.7825368642807007e-01 1.5824915468692780e-01</leafValues></_>
        <_>
          <internalNodes>
            0 -1 158 1581249573 1341813549 -1358367460 1597624572
            -204740619 -956386337 -1830948704 -423886933</internalNodes>
          <leafValues>
            -3.8531401753425598e-01 3.1517136096954346e-01</leafValues></_>
        <_>
          <internalNodes>
            0 -1 134 -570757124 -468159693 -1052476428 -539721745
            -899825803 1001628141 -800797964 434457821</internalNodes>
          <leafValues>
            -5.1696783304214478e-01 2.3265621066093445e-01</leafValues></_>
        <_>
          <internalNodes>
            0 -1 31 825132496 -1221591016 -1947644993 1024176299
            -2102686736 -1875179390 -1713112066 -1839037440</internalNodes>
          <leafValues>
            -4.2358660697937012e-01 2.9921567440032959e-01</leafValues></_>
        <_>
          <internalNodes>
            0 -1 145 -1062870049 -1705973903 -67174401 -1983594636
            1710693466 -285376674 -42471858 -789042</internalNodes>
          <leafValues>
            -3.3788365125656128e-01 3.7452119588851929e-01</leafValues></_>
        <_>
          <internalNodes>
            0 -1 17 1493883895 -154007826 -1500736171 1223165878
            1770254679 -400995810 600357228 2066390522</internalNodes>
          <leafValues>
            -3.7606212496757507e-01 3.3113786578178406e-01</leafValues></_>
        <_>
          <internalNodes>
            0 -1 9 -489951693 1250614222 -1068159568 810205344
            -958717371 1390131295 1943269335 1683994587</internalNodes>
          <leafValues>
            -5.1842880249023438e-01 2.2862555086612701e-01</leafValues></_>
        <_>
          <internalNodes>
            0 -1 167 -1869673961 1825723712 -1605311115 -1839227138
            -47153312 -82247018 656300912 -1683318883</internalNodes>
          <leafValues>
            -4.1424885392189026e-01 2.9971733689308167e-01</leafValues></_>
        <_>
          <internalNodes>
            0 -1 111 -76108998 -1823424751 -619670736 -42981595
            -1870034693 -123524213 -481735697 267261419</internalNodes>
          <leafValues>
            -4.7724285721778870e-01 2.5650489330291748e-01</leafValues></_>
        <_>
          <internalNodes>
            0 -1 25 -327537857 -2104263873 -652773928 -759954768
            1755203764 1598562310 1516830716 -10930080</internalNodes>
          <leafValues>
            -4.2832013964653015e-01 3.0213716626167297e-01</leafValues></_>
        <_>
          <internalNodes>
            0 -1 28 957127282 1795161048 -1849638795 187037716
            1386131698 1778813591 -1682852424 1921907823</internalNodes>
          <leafValues>
            -4.6929106116294861e-01 2.5546884536743164e-01</leafValues></_>
        <_>
          <internalNodes>
            0 -1 80 1040093684 -192547086 -31622416 2008744938 861215015
            714367902 663033559 -1364451306</internalNodes>
          <leafValues>
            -5.2848434448242188e-01 2.4704840779304504e-01</leafValues></_>
        <_>
          <internalNodes>
            0 -1 45 -1693249801 489001075 -1661968523 -469461924
            -1609580370 -1707966422 145268340 1709939599</internalNodes>
          <leafValues>
            -4.3183574080467224e-01 2.9294273257255554e-01</leafValues></_></weakClassifiers></_>
    <!-- stage 10 -->
    <_>
      <maxWeakCount>13</maxWeakCount>
      <stageThreshold>-1.3809951543807983e+00</stageThreshold>
      <weakClassifiers>
        <_>
          <internalNodes>
            0 -1 117 -993009245 -2104963415 -1869891657 -755400119
            -1420177233 -2003135781 -2091389249 -7353361</internalNodes>
          <leafValues>
            -5.9159368276596069e-01 1.0150150209665298e-01</leafValues></_>
        <_>
          <internalNodes>
            0 -1 53 -623386785 -607415492 -685801155 -32766924
            -1361403101 -120534276 -1023373763 -634544327</internalNodes>
          <leafValues>
            -4.0383470058441162e-01 2.6794514060020447e-01</leafValues></_>
        <_>
          <internalNodes>
            0 -1 143 -868422993 -1150005442 690161679 822903375
            -790363651 -25921483 -1377851222 -596276822</internalNodes>
          <leafValues>
            -3.5817429423332214e-01 3.0988058447837830e-01</leafValues></_>
        <_>
          <internalNodes>
            0 -1 102 -2023684301 -1407983138 -2004552395 2072643277
            -1887122121 -108483862 1849067773 -1683192104</internalNodes>
          <leafValues>
            -3.7544548511505127e-01 2.9862219095230103e-01</leafValues></_>
        <_>
          <internalNodes>
            0 -1 154 -240323243 1463474471 -1124424130 1849417599
            -536903706 -150997028 -163841408 1658846971</internalNodes>
          <leafValues>
            -3.2306304574012756e-01 3.6294361948966980e-01</leafValues></_>
        <_>
          <internalNodes>
            0 -1 67 -567754820 -136637090 -506902761 828941933
            -2049024775 -905611999 1052684174 1059997186</internalNodes>
          <leafValues>
            -4.6238163113594055e-01 2.7508544921875000e-01</leafValues></_>
        <_>
          <internalNodes>
            0 -1 29 -300946901 -389258998 1884758876 -823243372
            713259441 1161855178 -514112779 1139766597</internalNodes>
          <leafValues>
            -5.1166409254074097e-01 2.1423631906509399e-01</leafValues></_>
        <_>
          <internalNodes>
            0 -1 115 1513788410 1342845206 -1996381716 -552135329
            810615168 -1173329819 -1522527267 241633343</internalNodes>
          <leafValues>
            -5.4882210493087769e-01 2.1455758810043335e-01</leafValues></_>
        <_>
          <internalNodes>
            0 -1 153 -53212667 1893324927 280010207 -725980291
            -1196835985 1695902638 -745616195 403716671</internalNodes>
          <leafValues>
            -4.4349503517150879e-01 2.9291528463363647e-01</leafValues></_>
        <_>
          <internalNodes>
            0 -1 107 -1122539630 -1591225877 -1023374963 -578555687
            1653434801 -850755543 -1283329133 -863798421</internalNodes>
          <leafValues>
            -3.6019977927207947e-01 3.7115022540092468e-01</leafValues></_>
        <_>
          <internalNodes>
            0 -1 85 995824471 1073475044 -890278955 91599152 327741950
            -1159667100 -1071863300 148973499</internalNodes>
          <leafValues>
            -4.5889100432395935e-01 2.7495634555816650e-01</leafValues></_>
        <_>
          <internalNodes>
            0 -1 27 2011885143 2025678077 -500536270 -151573953
            -104347867 -155197699 -693741761 -4213365</internalNodes>
          <leafValues>
            -3.2458084821701050e-01 4.0770182013511658e-01</leafValues></_>
        <_>
          <internalNodes>
            0 -1 4 -1846873206 -85540566 -1857840110 -918542334
            -1585835761 473973367 6115371 1574390637</internalNodes>
          <leafValues>
            -4.9046945571899414e-01 2.6337176561355591e-01</leafValues></_></weakClassifiers></_>
    <!-- stage 11 -->
    <_>
      <maxWeakCount>12</maxWeakCount>
      <stageThreshold>-1.3277850151062012e+00</stageThreshold>
      <weakClassifiers>
        <_>
          <internalNodes>
            0 -1 133 -198712669 -1026760491 -927076185 -627584609
            -95689107 -223625077 -209270185 -1069089</internalNodes>
          <leafValues>
            -5.6930357217788696e-01 1.0499359667301178e-01</leafValues></_>
        <_>
          <internalNodes>
            0 -1 84 -1900401167 1602714184 -715686955 -2502180
            -1407620453 -1221951381 -1624379137 -1080077159</internalNodes>
          <leafValues>
            -3.3496290445327759e-01 3.4375718235969543e-01</leafValues></_>
        <_>
          <internalNodes>
            0 -1 121 1163537837 -1613055572 1237331205 1812773892
            326057212 730558666 2132557560 750134952</internalNodes>
          <leafValues>
            -5.7027417421340942e-01 1.9915086030960083e-01</leafValues></_>
        <_>
          <internalNodes>
            0 -1 86 -751311087 330364730 1543405567 -246100 -153634819
            -1109426314 -527665 -552249510</internalNodes>
          <leafValues>
            -2.7109533548355103e-01 4.0458258986473083e-01</leafValues></_>
        <_>
          <internalNodes>
            0 -1 139 -262898549 1715515817 269413585 -793693803
            1202540366 -165072312 -288764778 -1198803477</internalNodes>
          <leafValues>
            -3.5127466917037964e-01 3.3906289935112000e-01</leafValues></_>
        <_>
          <internalNodes>
            0 -1 150 -750092286 353428099 1904472408 1083490694 8067966
            -1286576121 2112749040 -394265221</internalNodes>
          <leafValues>
            -4.4466122984886169e-01 2.6112517714500427e-01</leafValues></_>
        <_>
          <internalNodes>
            0 -1 148 671140853 -1652307571 -1874094603 -205065520
            574859469 -87842599 722921749 782255424</internalNodes>
          <leafValues>
            -6.3304430246353149e-01 1.7022566497325897e-01</leafValues></_>
        <_>
          <internalNodes>
            0 -1 130 554380849 -1524065865 181492605 -1245996673
            -71735245 -807287540 -97169305 -537107784</internalNodes>
          <leafValues>
            -4.1398793458938599e-01 2.8504142165184021e-01</leafValues></_>
        <_>
          <internalNodes>
            0 -1 87 1835513812 -1501489919 1939952 40912576 261244677
            1076340352 260737979 2140795659</internalNodes>
          <leafValues>
            -5.1869028806686401e-01 2.3545925319194794e-01</leafValues></_>
        <_>
          <internalNodes>
            0 -1 36 -865717792 927019100 1469170167 789408941 -271984218
            -1869577853 -192947752 327191301</internalNodes>
          <leafValues>
            -4.7594696283340454e-01 2.6847067475318909e-01</leafValues></_>
        <_>
          <internalNodes>
            0 -1 70 -103248113 302917474 -1709011491 761037148
            1283649414 973132538 705416719 1029197716</internalNodes>
          <leafValues>
            -6.0384559631347656e-01 1.8606212735176086e-01</leafValues></_>
        <_>
          <internalNodes>
            0 -1 169 -620864931 1783961868 -671025697 538598526
            1518338052 134383721 -67728752 573764167</internalNodes>
          <leafValues>
            -5.1702672243118286e-01 2.3677028715610504e-01</leafValues></_></weakClassifiers></_>
    <!-- stage 12 -->
    <_>
      <maxWeakCount>14</maxWeakCount>
      <stageThreshold>-1.4204999208450317e+00</stageThreshold>
      <weakClassifiers>
        <_>
          <internalNodes>
            0 -1 124 -276307293 -1060440654 -492711101 -1160913287
            -752972962 -641285911 -99489085 -537137409</internalNodes>
          <leafValues>
            -5.9174811840057373e-01 6.5452478826045990e-02</leafValues></_>
        <_>
          <internalNodes>
            0 -1 163 707207733 -552792747 -1988473385 -75563284
            -618917999 -1076649470 -158352428 -72160796</internalNodes>
          <leafValues>
            -4.2721164226531982e-01 2.8027448058128357e-01</leafValues></_>
        <_>
          <internalNodes>
            0 -1 75 -1282279631 -1247765602 1540505835 -540071220
            12507896 -1229142088 -377632047 -1354673414</internalNodes>
          <leafValues>
            -3.5245612263679504e-01 3.2169443368911743e-01</leafValues></_>
        <_>
          <internalNodes>
            0 -1 166 -138419417 66428607 -602149357 -855646433
            -134752496 58129717 1702368560 -713034054</internalNodes>
          <leafValues>
            -3.2001036405563354e-01 3.4052383899688721e-01</leafValues></_>
        <_>
          <internalNodes>
            0 -1 118 -1968042736 618791220 -892502181 598213633
            -1164263776 -1488166 445226168 791152696</internalNodes>
          <leafValues>
            -6.4910191297531128e-01 2.0146034657955170e-01</leafValues></_>
        <_>
          <internalNodes>
            0 -1 37 1035001644 -254742095 -582891773 1081682448
            -1444455909 -993434740 1594092302 -754979806</internalNodes>
          <leafValues>
            -4.0228962898254395e-01 2.7746123075485229e-01</leafValues></_>
        <_>
          <internalNodes>
            0 -1 159 -29818803 395908173 -1870638193 -2097331687
            -1998858203 633039685 -1800623907 322075431</internalNodes>
          <leafValues>
            -4.7567445039749146e-01 2.3949374258518219e-01</leafValues></_>
        <_>
          <internalNodes>
            0 -1 6 -1521746353 -1033834292 -2105154104 -490949890
            1496312679 1359559246 1998926707 1388307669</internalNodes>
          <leafValues>
            -4.4795167446136475e-01 2.7978754043579102e-01</leafValues></_>
        <_>
          <internalNodes>
            0 -1 73 1415183986 384602385 -419261110 -1611939840
            1997623746 -1383937448 671794388 1299659238</internalNodes>
          <leafValues>
            -4.1344290971755981e-01 2.9793280363082886e-01</leafValues></_>
        <_>
          <internalNodes>
            0 -1 78 -254223916 1895061016 1368638301 406628396
            -779435072 -265113230 -9943351 557114880</internalNodes>
          <leafValues>
            -5.5748742818832397e-01 2.1254807710647583e-01</leafValues></_>
        <_>
          <internalNodes>
            0 -1 50 149390769 -1898536706 1343347580 1784583406
            -1090324555 591175818 2124636084 -17834308</internalNodes>
          <leafValues>
            -4.4134023785591125e-01 2.6535046100616455e-01</leafValues></_>
        <_>
          <internalNodes>
            0 -1 141 -92089431 8958848 1348432919 1439494214 -89781583
            -1195720319 1834179318 218067839</internalNodes>
          <leafValues>
            -3.7390890717506409e-01 3.3467349410057068e-01</leafValues></_>
        <_>
          <internalNodes>
            0 -1 16 1711737417 -1134956073 -1928078768 -124067062
            1502286593 1581817858 2043357204 -438117838</internalNodes>
          <leafValues>
            -4.8866519331932068e-01 2.5412416458129883e-01</leafValues></_>
        <_>
          <internalNodes>
            0 -1 69 -666408755 -199694372 1788184969 1300450886
            -1304104134 -1468279284 -1359988045 -1117783308</internalNodes>
          <leafValues>
            -3.5351637005805969e-01 3.4818509221076965e-01</leafValues></_></weakClassifiers></_>
    <!-- stage 13 -->
    <_>
      <maxWeakCount>14</maxWeakCount>
      <stageThreshold>-1.4880014657974243e+00</stageThreshold>
      <weakClassifiers>
        <_>
          <internalNodes>
            0 -1 81 1431754207 1072879519 -884867201 -6425607 -66853990
            -24983109 -365474627 -1344275205</internalNodes>
          <leafValues>
            -5.4499685764312744e-01 1.5797317028045654e-01</leafValues></_>
        <_>
          <internalNodes>
            0 -1 146 41134847 284824472 -805093387 391628361 1715233114
            1853557280 -862549814 -547098209</internalNodes>
          <leafValues>
            -3.7551286816596985e-01 2.7412185072898865e-01</leafValues></_>
        <_>
          <internalNodes>
            0 -1 66 -1560364073 -1636384513 -1330022561 -1370983938
            819814410 -275851287 1791062805 -52772684</internalNodes>
          <leafValues>
            -3.7975162267684937e-01 2.7858898043632507e-01</leafValues></_>
        <_>
          <internalNodes>
            0 -1 100 -678173784 -176138046 1126009458 -4541220
            -243118098 632875956 1373835230 629346456</internalNodes>
          <leafValues>
            -4.7238573431968689e-01 2.2267848253250122e-01</leafValues></_>
        <_>
          <internalNodes>
            0 -1 10 -295735633 778814565 -2138849102 44224719 -347782634
            1172506740 1984320225 1613233634</internalNodes>
          <leafValues>
            -4.7567257285118103e-01 2.5018933415412903e-01</leafValues></_>
        <_>
          <internalNodes>
            0 -1 95 -130703309 285586440 -1878471693 730062154
            -1974378495 1102786873 1498090267 1260280687</internalNodes>
          <leafValues>
            -3.9379131793975830e-01 2.8635397553443909e-01</leafValues></_>
        <_>
          <internalNodes>
            0 -1 156 -134228581 -1481044419 805040085 -167903377
            2050809740 729791751 1004373418 -144443697</internalNodes>
          <leafValues>
            -2.8008902072906494e-01 4.4005006551742554e-01</leafValues></_>
        <_>
          <internalNodes>
            0 -1 94 -139482189 -1354796226 -1090568361 -638243209
            -2042652737 -17334409 -1294945602 -35325965</internalNodes>
          <leafValues>
            -2.2879050672054291e-01 4.7926667332649231e-01</leafValues></_>
        <_>
          <internalNodes>
            0 -1 114 -24711519 72743128 -1794512602 -1718643039
            1171522041 741560548 718293549 1218596259</internalNodes>
          <leafValues>
            -4.4465705752372742e-01 2.6385083794593811e-01</leafValues></_>
        <_>
          <internalNodes>
            0 -1 151 -302291421 -763773615 -1410605057 -2136703505
            -1409460364 -1233682825 -524549 -287585858</internalNodes>
          <leafValues>
            -2.9961228370666504e-01 4.1379842162132263e-01</leafValues></_>
        <_>
          <internalNodes>
            0 -1 120 1552438692 -1781033978 1258936791 -645742428
            1972253370 444785642 1604982665 2091656576</internalNodes>
          <leafValues>
            -5.8279716968536377e-01 2.2062526643276215e-01</leafValues></_>
        <_>
          <internalNodes>
            0 -1 11 1992352238 -245399073 -1811742694 1472217116
            -45991768 -1954536536 -2114994221 1930406458</internalNodes>
          <leafValues>
            -3.8066285848617554e-01 3.3187913894653320e-01</leafValues></_>
        <_>
          <internalNodes>
            0 -1 128 1868529571 713737634 340247765 -1638466872
            -1508439197 -1547052864 -1680930003 -44047900</internalNodes>
          <leafValues>
            -3.8609337806701660e-01 3.2256007194519043e-01</leafValues></_>
        <_>
          <internalNodes>
            0 -1 0 -656113010 -1618853423 -2129858412 1535099006
            278008449 462627858 369246465 1642157442</internalNodes>
          <leafValues>
            -4.8816546797752380e-01 2.5760734081268311e-01</leafValues></_></weakClassifiers></_>
    <!-- stage 14 -->
    <_>
      <maxWeakCount>14</maxWeakCount>
      <stageThreshold>-1.3972910642623901e+00</stageThreshold>
      <weakClassifiers>
        <_>
          <internalNodes>
            0 -1 71 -480795337 -25751245 1500875581 -14727893 -275799041
            -623986253 -68318321 -273691729</internalNodes>
          <leafValues>
            -5.5570250749588013e-01 1.0769230872392654e-01</leafValues></_>
        <_>
          <internalNodes>
            0 -1 68 -1901451663 -292782946 -586967183 -42150539
            1010514707 -1144934686 730446285 -281519043</internalNodes>
          <leafValues>
            -3.9812630414962769e-01 2.3955605924129486e-01</leafValues></_>
        <_>
          <internalNodes>
            0 -1 162 2143169827 1474024153 -145467404 398365487
            -604119680 1978324115 -219291008 -125043825</internalNodes>
          <leafValues>
            -3.2738611102104187e-01 3.0592179298400879e-01</leafValues></_>
        <_>
          <internalNodes>
            0 -1 44 -5423369 1071585051 1053569649 -1264316042
            -1672045340 -1727093157 -1475300176 1842262207</internalNodes>
          <leafValues>
            -4.0443608164787292e-01 2.5897377729415894e-01</leafValues></_>
        <_>
          <internalNodes>
            0 -1 157 -268575327 37949477 1166536159 276820323
            -1620881404 421388371 -31659748 -1474669825</internalNodes>
          <leafValues>
            -3.5958674550056458e-01 2.8898251056671143e-01</leafValues></_>
        <_>
          <internalNodes>
            0 -1 56 583934727 -322432948 -161963268 780796148 1758000896
            1539549810 109756340 962190532</internalNodes>
          <leafValues>
            -6.1488038301467896e-01 1.8653759360313416e-01</leafValues></_>
        <_>
          <internalNodes>
            0 -1 23 229307826 807428384 -1982658221 -576349380
            -1978854993 607153059 1183563953 33361205</internalNodes>
          <leafValues>
            -5.2914988994598389e-01 1.8292875587940216e-01</leafValues></_>
        <_>
          <internalNodes>
            0 -1 26 1026815047 550754508 1845873477 1074417320
            2065702519 -1730563853 -551036120 490451610</internalNodes>
          <leafValues>
            -4.3613138794898987e-01 2.6848113536834717e-01</leafValues></_>
        <_>
          <internalNodes>
            0 -1 152 37101268 438202970 277050741 -1332596355 -216891608
            -344293332 1273186566 -1431155296</internalNodes>
          <leafValues>
            -5.2403682470321655e-01 1.9313882291316986e-01</leafValues></_>
        <_>
          <internalNodes>
            0 -1 104 -271284351 1008006658 1130214417 -812980940
            1115924980 164649315 1452296176 1825883778</internalNodes>
          <leafValues>
            -5.1349610090255737e-01 2.1314734220504761e-01</leafValues></_>
        <_>
          <internalNodes>
            0 -1 168 124766099 700602619 1891694908 -1934843240
            -1097352722 77355355 -1650316560 74682936</internalNodes>
          <leafValues>
            -4.4250217080116272e-01 2.6466429233551025e-01</leafValues></_>
        <_>
          <internalNodes>
            0 -1 57 -318610831 -540220608 -666166051 -140604892
            -1160735064 -371518573 -866479682 -1898225547</internalNodes>
          <leafValues>
            -3.6357164382934570e-01 3.1605869531631470e-01</leafValues></_>
        <_>
          <internalNodes>
            0 -1 108 -1020542047 -1799599501 1811938423 2071420637
            3414324 -236085836 2105099805 1002137327</internalNodes>
          <leafValues>
            -3.2018730044364929e-01 3.6155048012733459e-01</leafValues></_>
        <_>
          <internalNodes>
            0 -1 19 -597537578 280118771 1758860734 1000362654
            -884870936 -1872740323 -1073282863 1945058014</internalNodes>
          <leafValues>
            -4.9384778738021851e-01 2.3888996243476868e-01</leafValues></_></weakClassifiers></_></stages>
  <features>
    <_>
      <rect>
        0 1 4 16</rect></_>
    <_>
      <rect>
        0 1 7 6</rect></_>
    <_>
      <rect>
        0 4 8 6</rect></_>
    <_>
      <rect>
        0 4 8 15</rect></_>
    <_>
      <rect>
        0 11 8 4</rect></_>
    <_>
      <rect>
        0 14 6 3</rect></_>
    <_>
      <rect>
        0 15 2 2</rect></_>
    <_>
      <rect>
        0 17 3 2</rect></_>
    <_>
      <rect>
        0 18 5 2</rect></_>
    <_>
      <rect>
        0 23 4 2</rect></_>
    <_>
      <rect>
        0 28 3 2</rect></_>
    <_>
      <rect>
        0 47 1 1</rect></_>
    <_>
      <rect>
        1 1 16 6</rect></_>
    <_>
      <rect>
        1 25 5 3</rect></_>
    <_>
      <rect>
        1 25 6 3</rect></_>
    <_>
      <rect>
        2 17 16 7</rect></_>
    <_>
      <rect>
        2 32 7 3</rect></_>
    <_>
      <rect>
        3 13 13 6</rect></_>
    <_>
      <rect>
        3 15 3 3</rect></_>
    <_>
      <rect>
        3 15 10 9</rect></_>
    <_>
      <rect>
        3 16 12 5</rect></_>
    <_>
      <rect>
        3 22 4 3</rect></_>
    <_>
      <rect>
        3 25 4 3</rect></_>
    <_>
      <rect>
        4 3 4 6</rect></_>
    <_>
      <rect>
        4 13 13 11</rect></_>
    <_>
      <rect>
        4 26 5 4</rect></_>
    <_>
      <rect>
        5 10 10 9</rect></_>
    <_>
      <rect>
        5 12 12 8</rect></_>
    <_>
      <rect>
        6 11 9 5</rect></_>
    <_>
      <rect>
        6 18 3 2</rect></_>
    <_>
      <rect>
        6 30 4 4</rect></_>
    <_>
      <rect>
        7 1 13 6</rect></_>
    <_>
      <rect>
        7 2 10 12</rect></_>
    <_>
      <rect>
        7 12 11 7</rect></_>
    <_>
      <rect>
        7 25 3 2</rect></_>
    <_>
      <rect>
        7 29 4 2</rect></_>
    <_>
      <rect>
        8 2 14 5</rect></_>
    <_>
      <rect>
        8 4 9 11</rect></_>
    <_>
      <rect>
        8 13 9 7</rect></_>
    <_>
      <rect>
        8 21 7 6</rect></_>
    <_>
      <rect>
        9 10 10 8</rect></_>
    <_>
      <rect>
        9 12 4 2</rect></_>
    <_>
      <rect>
        9 16 10 7</rect></_>
    <_>
      <rect>
        9 21 11 2</rect></_>
    <_>
      <rect>
        10 21 11 6</rect></_>
    <_>
      <rect>
        10 23 12 4</rect></_>
    <_>
      <rect>
        11 11 8 8</rect></_>
    <_>
      <rect>
        11 15 10 11</rect></_>
    <_>
      <rect>
        11 16 9 4</rect></_>
    <_>
      <rect>
        11 20 10 7</rect></_>
    <_>
      <rect>
        11 28 2 1</rect></_>
    <_>
      <rect>
        12 10 7 6</rect></_>
    <_>
      <rect>
        12 10 7 7</rect></_>
    <_>
      <rect>
        12 13 9 5</rect></_>
    <_>
      <rect>
        12 14 7 4</rect></_>
    <_>
      <rect>
        12 15 9 6</rect></_>
    <_>
      <rect>
        12 17 9 4</rect></_>
    <_>
      <rect>
        12 18 2 2</rect></_>
    <_>
      <rect>
        12 19 10 5</rect></_>
    <_>
      <rect>
        12 22 9 5</rect></_>
    <_>
      <rect>
        13 8 9 5</rect></_>
    <_>
      <rect>
        13 10 8 5</rect></_>
    <_>
      <rect>
        13 18 9 5</rect></_>
    <_>
      <rect>
        13 19 5 3</rect></_>
    <_>
      <rect>
        13 19 7 5</rect></_>
    <_>
      <rect>
        13 22 8 5</rect></_>
    <_>
      <rect>
        13 31 1 1</rect></_>
    <_>
      <rect>
        14 6 5 9</rect></_>
    <_>
      <rect>
        14 10 3 2</rect></_>
    <_>
      <rect>
        14 10 10 8</rect></_>
    <_>
      <rect>
        14 15 6 4</rect></_>
    <_>
      <rect>
        14 16 8 3</rect></_>
    <_>
      <rect>
        14 17 4 4</rect></_>
    <_>
      <rect>
        14 20 4 2</rect></_>
    <_>
      <rect>
        14 20 4 3</rect></_>
    <_>
      <rect>
        14 22 4 3</rect></_>
    <_>
      <rect>
        14 22 5 3</rect></_>
    <_>
      <rect>
        15 12 10 7</rect></_>
    <_>
      <rect>
        15 13 6 4</rect></_>
    <_>
      <rect>
        15 13 7 5</rect></_>
    <_>
      <rect>
        15 15 10 9</rect></_>
    <_>
      <rect>
        15 18 4 3</rect></_>
    <_>
      <rect>
        15 19 7 2</rect></_>
    <_>
      <rect>
        15 20 7 2</rect></_>
    <_>
      <rect>
        15 21 1 1</rect></_>
    <_>
      <rect>
        15 22 6 5</rect></_>
    <_>
      <rect>
        15 24 3 2</rect></_>
    <_>
      <rect>
        15 24 11 2</rect></_>
    <_>
      <rect>
        15 25 5 5</rect></_>
    <_>
      <rect>
        16 10 7 6</rect></_>
    <_>
      <rect>
        16 15 4 4</rect></_>
    <_>
      <rect>
        16 18 6 3</rect></_>
    <_>
      <rect>
        16 19 7 2</rect></_>
    <_>
      <rect>
        16 21 6 1</rect></_>
    <_>
      <rect>
        16 23 8 5</rect></_>
    <_>
      <rect>
        16 34 7 3</rect></_>
    <_>
      <rect>
        17 13 7 5</rect></_>
    <_>
      <rect>
        17 13 8 6</rect></_>
    <_>
      <rect>
        17 16 11 8</rect></_>
    <_>
      <rect>
        17 22 3 2</rect></_>
    <_>
      <rect>
        17 22 4 3</rect></_>
    <_>
      <rect>
        17 22 8 4</rect></_>
    <_>
      <rect>
        18 6 4 2</rect></_>
    <_>
      <rect>
        18 7 9 11</rect></_>
    <_>
      <rect>
        18 17 6 3</rect></_>
    <_>
      <rect>
        18 18 5 2</rect></_>
    <_>
      <rect>
        18 24 1 1</rect></_>
    <_>
      <rect>
        18 24 2 1</rect></_>
    <_>
      <rect>
        18 31 4 2</rect></_>
    <_>
      <rect>
        19 12 7 6</rect></_>
    <_>
      <rect>
        19 21 3 2</rect></_>
    <_>
      <rect>
        19 21 3 4</rect></_>
    <_>
      <rect>
        19 22 1 1</rect></_>
    <_>
      <rect>
        20 6 4 5</rect></_>
    <_>
      <rect>
        20 17 4 3</rect></_>
    <_>
      <rect>
        20 19 8 8</rect></_>
    <_>
      <rect>
        20 21 7 3</rect></_>
    <_>
      <rect>
        20 22 2 2</rect></_>
    <_>
      <rect>
        21 0 5 5</rect></_>
    <_>
      <rect>
        21 11 6 5</rect></_>
    <_>
      <rect>
        21 12 6 5</rect></_>
    <_>
      <rect>
        21 16 5 4</rect></_>
    <_>
      <rect>
        21 16 8 8</rect></_>
    <_>
      <rect>
        21 18 3 3</rect></_>
    <_>
      <rect>
        21 21 2 2</rect></_>
    <_>
      <rect>
        21 21 9 5</rect></_>
    <_>
      <rect>
        22 12 2 4</rect></_>
    <_>
      <rect>
        22 13 7 11</rect></_>
    <_>
      <rect>
        22 20 2 1</rect></_>
    <_>
      <rect>
        22 24 2 1</rect></_>
    <_>
      <rect>
        23 9 2 1</rect></_>
    <_>
      <rect>
        23 9 5 10</rect></_>
    <_>
      <rect>
        23 20 5 4</rect></_>
    <_>
      <rect>
        23 21 2 2</rect></_>
    <_>
      <rect>
        23 22 2 3</rect></_>
    <_>
      <rect>
        23 22 5 4</rect></_>
    <_>
      <rect>
        23 23 1 1</rect></_>
    <_>
      <rect>
        24 17 4 4</rect></_>
    <_>
      <rect>
        24 17 5 7</rect></_>
    <_>
      <rect>
        24 21 3 2</rect></_>
    <_>
      <rect>
        24 24 1 1</rect></_>
    <_>
      <rect>
        24 27 3 2</rect></_>
    <_>
      <rect>
        25 14 4 6</rect></_>
    <_>
      <rect>
        25 20 4 5</rect></_>
    <_>
      <rect>
        25 21 4 2</rect></_>
    <_>
      <rect>
        25 22 4 2</rect></_>
    <_>
      <rect>
        26 23 3 1</rect></_>
    <_>
      <rect>
        28 4 4 5</rect></_>
    <_>
      <rect>
        28 13 3 6</rect></_>
    <_>
      <rect>
        28 23 1 1</rect></_>
    <_>
      <rect>
        28 28 5 2</rect></_>
    <_>
      <rect>
        29 26 1 1</rect></_>
    <_>
      <rect>
        30 23 1 1</rect></_>
    <_>
      <rect>
        31 0 6 4</rect></_>
    <_>
      <rect>
        31 25 6 3</rect></_>
    <_>
      <rect>
        32 4 6 5</rect></_>
    <_>
      <rect>
        32 14 6 4</rect></_>
    <_>
      <rect>
        32 16 5 2</rect></_>
    <_>
      <rect>
        33 26 5 3</rect></_>
    <_>
      <rect>
        34 8 4 4</rect></_>
    <_>
      <rect>
        35 2 5 16</rect></_>
    <_>
      <rect>
        35 13 5 3</rect></_>
    <_>
      <rect>
        35 24 4 2</rect></_>
    <_>
      <rect>
        35 27 1 1</rect></_>
    <_>
      <rect>
        36 27 3 2</rect></_>
    <_>
      <rect>
        37 21 3 2</rect></_>
    <_>
      <rect>
        38 20 4 4</rect></_>
    <_>
      <rect>
        38 23 1 1</rect></_>
    <_>
      <rect>
        38 38 4 3</rect></_>
    <_>
      <rect>
        40 8 3 3</rect></_></features></cascade>
</opencv_storage>
