<?xml version="1.0"?>
<opencv_storage>
<stage6>
  <maxWeakCount>12</maxWeakCount>
  <stageThreshold>-1.6358730792999268e+00</stageThreshold>
  <weakClassifiers>
    <_>
      <internalNodes>
        0 -1 101615 -2101333 1069532057 -644626513 -37885043 -873494097
        -1180778313 2111768975 -1137</internalNodes>
      <leafValues>
        -6.0352134704589844e-01 2.2780454158782959e-01</leafValues></_>
    <_>
      <internalNodes>
        0 -1 69203 -35717129 -80080065 -602638379 -1782295179
        -1106195090 -557272112 -1811877167 -304098321</internalNodes>
      <leafValues>
        -3.6442226171493530e-01 3.5568109154701233e-01</leafValues></_>
    <_>
      <internalNodes>
        0 -1 96791 2135489981 -46478359 1959344741 1871056652 269662137
        -1216358439 607396024 2061673168</internalNodes>
      <leafValues>
        -4.7170203924179077e-01 2.9496011137962341e-01</leafValues></_>
    <_>
      <internalNodes>
        0 -1 97777 -1000085625 23130144 -284835433 -676875286
        -1005555040 -1662263080 -455497526 -271949345</internalNodes>
      <leafValues>
        -3.6283591389656067e-01 3.6443775892257690e-01</leafValues></_>
    <_>
      <internalNodes>
        0 -1 146113 -671471019 2113098565 -577112887 2049407771
        -85984683 1163086093 -1080625426 808517479</internalNodes>
      <leafValues>
        -4.1458487510681152e-01 3.2994472980499268e-01</leafValues></_>
    <_>
      <internalNodes>
        0 -1 3230 -1444428849 -1953835282 -683465748 -1111594876
        -1062269249 74707131 400193463 1409283583</internalNodes>
      <leafValues>
        -4.4019383192062378e-01 3.2382944226264954e-01</leafValues></_>
    <_>
      <internalNodes>
        0 -1 102144 539365681 -1900489035 193370588 -573568582 786258677
        -103247665 -942974491 -1918220860</internalNodes>
      <leafValues>
        -5.1145398616790771e-01 2.9041594266891479e-01</leafValues></_>
    <_>
      <internalNodes>
        0 -1 113917 -414487702 2086366911 1511716218 1984111215
        -1875950132 -1328422245 -1164723414 -1168662686</internalNodes>
      <leafValues>
        -4.3270432949066162e-01 3.4694236516952515e-01</leafValues></_>
    <_>
      <internalNodes>
        0 -1 44259 -1052586144 -1282418804 2072724227 1354039844
        -452331730 -1026304131 1041398299 953872992</internalNodes>
      <leafValues>
        -5.3232306241989136e-01 2.6652148365974426e-01</leafValues></_>
    <_>
      <internalNodes>
        0 -1 23024 -273718403 -537440016 -1356668065 -1045231639
        1870640220 -42994446 -1085482146 -42207886</internalNodes>
      <leafValues>
        -3.6143907904624939e-01 3.8632664084434509e-01</leafValues></_>
    <_>
      <internalNodes>
        0 -1 137085 -1874639275 452723414 -2012910801 1917995753
        -175622544 -125910749 -677708974 -386205080</internalNodes>
      <leafValues>
        -4.2153480648994446e-01 3.5056909918785095e-01</leafValues></_>
    <_>
      <internalNodes>
        0 -1 116637 -559219695 1032971528 -443300929 1066250664
        -1983075608 -113024696 2122467362 -1392753664</internalNodes>
      <leafValues>
        -5.8133095502853394e-01 2.2787147760391235e-01</leafValues></_></weakClassifiers></stage6>
</opencv_storage>
