<?xml version="1.0"?>
<opencv_storage>
<stage4>
  <maxWeakCount>10</maxWeakCount>
  <stageThreshold>-1.4034621715545654e+00</stageThreshold>
  <weakClassifiers>
    <_>
      <internalNodes>
        0 -1 93012 -337645785 -41951461 -212495049 -4197585 -1889538057
        -272719439 -544486453 -1052689</internalNodes>
      <leafValues>
        -6.3396102190017700e-01 2.6724714040756226e-01</leafValues></_>
    <_>
      <internalNodes>
        0 -1 97824 -252383497 -711412953 -268861579 -2080361211
        -1598978393 -798499977 116765631 -80240069</internalNodes>
      <leafValues>
        -4.3462419509887695e-01 3.7815383076667786e-01</leafValues></_>
    <_>
      <internalNodes>
        0 -1 83604 1429566933 657095590 -1853031491 -1379112047
        2139059131 1059203470 -843159397 155229944</internalNodes>
      <leafValues>
        -5.8281087875366211e-01 2.6061159372329712e-01</leafValues></_>
    <_>
      <internalNodes>
        0 -1 108280 -1138205488 -759257488 710316919 -388058224
        -81886228 -7356265 -108484668 -1373237231</internalNodes>
      <leafValues>
        -6.4462512731552124e-01 2.5803613662719727e-01</leafValues></_>
    <_>
      <internalNodes>
        0 -1 97204 -1719667228 -574263459 1428228080 -91267405 316919953
        -178055625 1049825573 -1080065381</internalNodes>
      <leafValues>
        -4.7433254122734070e-01 2.9171928763389587e-01</leafValues></_>
    <_>
      <internalNodes>
        0 -1 127289 -1066345481 -1655374641 -61683201 -225827047
        284182975 1250683023 1078198510 489572064</internalNodes>
      <leafValues>
        -5.3242480754852295e-01 2.9352205991744995e-01</leafValues></_>
    <_>
      <internalNodes>
        0 -1 53249 1702847508 -96184352 -1774128642 1223631557
        2110729716 -1765840 165508085 -1673166012</internalNodes>
      <leafValues>
        -5.8955109119415283e-01 2.2183291614055634e-01</leafValues></_>
    <_>
      <internalNodes>
        0 -1 124800 -1935536351 202932239 -700579069 -523045621
        -696573601 552307925 1000614167 -1944283787</internalNodes>
      <leafValues>
        -5.9123539924621582e-01 2.7248761057853699e-01</leafValues></_>
    <_>
      <internalNodes>
        0 -1 72852 -380317768 832422740 1599514461 416025428 -653544642
        -271937248 -418839025 2071701456</internalNodes>
      <leafValues>
        -5.1585322618484497e-01 2.8649112582206726e-01</leafValues></_>
    <_>
      <internalNodes>
        0 -1 127876 1383557059 299026274 -225714919 -1557997744
        2141681928 -91339183 -145176436 -95478454</internalNodes>
      <leafValues>
        -4.2254903912544250e-01 3.7046253681182861e-01</leafValues></_></weakClassifiers></stage4>
</opencv_storage>
