<?xml version="1.0"?>
<opencv_storage>
<stage10>
  <maxWeakCount>13</maxWeakCount>
  <stageThreshold>-1.3809951543807983e+00</stageThreshold>
  <weakClassifiers>
    <_>
      <internalNodes>
        0 -1 110134 -993009245 -2104963415 -1869891657 -755400119
        -1420177233 -2003135781 -2091389249 -7353361</internalNodes>
      <leafValues>
        -5.9159368276596069e-01 1.0150150209665298e-01</leafValues></_>
    <_>
      <internalNodes>
        0 -1 73324 -623386785 -607415492 -685801155 -32766924
        -1361403101 -120534276 -1023373763 -634544327</internalNodes>
      <leafValues>
        -4.0383470058441162e-01 2.6794514060020447e-01</leafValues></_>
    <_>
      <internalNodes>
        0 -1 127802 -868422993 -1150005442 690161679 822903375
        -790363651 -25921483 -1377851222 -596276822</internalNodes>
      <leafValues>
        -3.5817429423332214e-01 3.0988058447837830e-01</leafValues></_>
    <_>
      <internalNodes>
        0 -1 100117 -2023684301 -1407983138 -2004552395 2072643277
        -1887122121 -108483862 1849067773 -1683192104</internalNodes>
      <leafValues>
        -3.7544548511505127e-01 2.9862219095230103e-01</leafValues></_>
    <_>
      <internalNodes>
        0 -1 145098 -240323243 1463474471 -1124424130 1849417599
        -536903706 -150997028 -163841408 1658846971</internalNodes>
      <leafValues>
        -3.2306304574012756e-01 3.6294361948966980e-01</leafValues></_>
    <_>
      <internalNodes>
        0 -1 81964 -567754820 -136637090 -506902761 828941933
        -2049024775 -905611999 1052684174 1059997186</internalNodes>
      <leafValues>
        -4.6238163113594055e-01 2.7508544921875000e-01</leafValues></_>
    <_>
      <internalNodes>
        0 -1 41367 -300946901 -389258998 1884758876 -823243372 713259441
        1161855178 -514112779 1139766597</internalNodes>
      <leafValues>
        -5.1166409254074097e-01 2.1423631906509399e-01</leafValues></_>
    <_>
      <internalNodes>
        0 -1 109911 1513788410 1342845206 -1996381716 -552135329
        810615168 -1173329819 -1522527267 241633343</internalNodes>
      <leafValues>
        -5.4882210493087769e-01 2.1455758810043335e-01</leafValues></_>
    <_>
      <internalNodes>
        0 -1 143291 -53212667 1893324927 280010207 -725980291
        -1196835985 1695902638 -745616195 403716671</internalNodes>
      <leafValues>
        -4.4349503517150879e-01 2.9291528463363647e-01</leafValues></_>
    <_>
      <internalNodes>
        0 -1 102152 -1122539630 -1591225877 -1023374963 -578555687
        1653434801 -850755543 -1283329133 -863798421</internalNodes>
      <leafValues>
        -3.6019977927207947e-01 3.7115022540092468e-01</leafValues></_>
    <_>
      <internalNodes>
        0 -1 88831 995824471 1073475044 -890278955 91599152 327741950
        -1159667100 -1071863300 148973499</internalNodes>
      <leafValues>
        -4.5889100432395935e-01 2.7495634555816650e-01</leafValues></_>
    <_>
      <internalNodes>
        0 -1 34573 2011885143 2025678077 -500536270 -151573953
        -104347867 -155197699 -693741761 -4213365</internalNodes>
      <leafValues>
        -3.2458084821701050e-01 4.0770182013511658e-01</leafValues></_>
    <_>
      <internalNodes>
        0 -1 2670 -1846873206 -85540566 -1857840110 -918542334
        -1585835761 473973367 6115371 1574390637</internalNodes>
      <leafValues>
        -4.9046945571899414e-01 2.6337176561355591e-01</leafValues></_></weakClassifiers></stage10>
</opencv_storage>
