<?xml version="1.0"?>
<opencv_storage>
<stage12>
  <maxWeakCount>14</maxWeakCount>
  <stageThreshold>-1.4204999208450317e+00</stageThreshold>
  <weakClassifiers>
    <_>
      <internalNodes>
        0 -1 113851 -276307293 -1060440654 -492711101 -1160913287
        -752972962 -641285911 -99489085 -537137409</internalNodes>
      <leafValues>
        -5.9174811840057373e-01 6.5452478826045990e-02</leafValues></_>
    <_>
      <internalNodes>
        0 -1 153804 707207733 -552792747 -1988473385 -75563284
        -618917999 -1076649470 -158352428 -72160796</internalNodes>
      <leafValues>
        -4.2721164226531982e-01 2.8027448058128357e-01</leafValues></_>
    <_>
      <internalNodes>
        0 -1 84197 -1282279631 -1247765602 1540505835 -540071220
        12507896 -1229142088 -377632047 -1354673414</internalNodes>
      <leafValues>
        -3.5245612263679504e-01 3.2169443368911743e-01</leafValues></_>
    <_>
      <internalNodes>
        0 -1 158573 -138419417 66428607 -602149357 -855646433 -134752496
        58129717 1702368560 -713034054</internalNodes>
      <leafValues>
        -3.2001036405563354e-01 3.4052383899688721e-01</leafValues></_>
    <_>
      <internalNodes>
        0 -1 111452 -1968042736 618791220 -892502181 598213633
        -1164263776 -1488166 445226168 791152696</internalNodes>
      <leafValues>
        -6.4910191297531128e-01 2.0146034657955170e-01</leafValues></_>
    <_>
      <internalNodes>
        0 -1 50380 1035001644 -254742095 -582891773 1081682448
        -1444455909 -993434740 1594092302 -754979806</internalNodes>
      <leafValues>
        -4.0228962898254395e-01 2.7746123075485229e-01</leafValues></_>
    <_>
      <internalNodes>
        0 -1 150794 -29818803 395908173 -1870638193 -2097331687
        -1998858203 633039685 -1800623907 322075431</internalNodes>
      <leafValues>
        -4.7567445039749146e-01 2.3949374258518219e-01</leafValues></_>
    <_>
      <internalNodes>
        0 -1 3372 -1521746353 -1033834292 -2105154104 -490949890
        1496312679 1359559246 1998926707 1388307669</internalNodes>
      <leafValues>
        -4.4795167446136475e-01 2.7978754043579102e-01</leafValues></_>
    <_>
      <internalNodes>
        0 -1 83971 1415183986 384602385 -419261110 -1611939840
        1997623746 -1383937448 671794388 1299659238</internalNodes>
      <leafValues>
        -4.1344290971755981e-01 2.9793280363082886e-01</leafValues></_>
    <_>
      <internalNodes>
        0 -1 87789 -254223916 1895061016 1368638301 406628396 -779435072
        -265113230 -9943351 557114880</internalNodes>
      <leafValues>
        -5.5748742818832397e-01 2.1254807710647583e-01</leafValues></_>
    <_>
      <internalNodes>
        0 -1 69998 149390769 -1898536706 1343347580 1784583406
        -1090324555 591175818 2124636084 -17834308</internalNodes>
      <leafValues>
        -4.4134023785591125e-01 2.6535046100616455e-01</leafValues></_>
    <_>
      <internalNodes>
        0 -1 125007 -92089431 8958848 1348432919 1439494214 -89781583
        -1195720319 1834179318 218067839</internalNodes>
      <leafValues>
        -3.7390890717506409e-01 3.3467349410057068e-01</leafValues></_>
    <_>
      <internalNodes>
        0 -1 18806 1711737417 -1134956073 -1928078768 -124067062
        1502286593 1581817858 2043357204 -438117838</internalNodes>
      <leafValues>
        -4.8866519331932068e-01 2.5412416458129883e-01</leafValues></_>
    <_>
      <internalNodes>
        0 -1 82684 -666408755 -199694372 1788184969 1300450886
        -1304104134 -1468279284 -1359988045 -1117783308</internalNodes>
      <leafValues>
        -3.5351637005805969e-01 3.4818509221076965e-01</leafValues></_></weakClassifiers></stage12>
</opencv_storage>
