<?xml version="1.0"?>
<opencv_storage>
<stage2>
  <maxWeakCount>9</maxWeakCount>
  <stageThreshold>-1.4142783880233765e+00</stageThreshold>
  <weakClassifiers>
    <_>
      <internalNodes>
        0 -1 87802 -3672161 -40926959 -49967971 -584218851 -490018421
        -539240007 -810578501 -28737</internalNodes>
      <leafValues>
        -6.0456275939941406e-01 4.9682107567787170e-01</leafValues></_>
    <_>
      <internalNodes>
        0 -1 78988 -191824656 -705593985 -774844613 1037782879
        -1403126088 1439083233 522357183 264228094</internalNodes>
      <leafValues>
        -6.2957102060317993e-01 2.8511127829551697e-01</leafValues></_>
    <_>
      <internalNodes>
        0 -1 74452 2006390647 2000558871 -333160843 1410347345
        -1161890329 -1074054001 53488 224359023</internalNodes>
      <leafValues>
        -5.8420175313949585e-01 3.0572187900543213e-01</leafValues></_>
    <_>
      <internalNodes>
        0 -1 23843 -486561233 -1601388258 469904502 -497934232
        1686774127 102023179 -207404297 -135565348</internalNodes>
      <leafValues>
        -4.8712986707687378e-01 3.8572642207145691e-01</leafValues></_>
    <_>
      <internalNodes>
        0 -1 105973 -2136029823 4248464 1655423637 -37684848 -861215576
        -1518288491 -1465779778 -72460801</internalNodes>
      <leafValues>
        -5.1874089241027832e-01 3.6880424618721008e-01</leafValues></_>
    <_>
      <internalNodes>
        0 -1 72851 -77007652 973928396 -737882379 994019365 -761468241
        -540353796 595724424 1048086048</internalNodes>
      <leafValues>
        -6.3254576921463013e-01 2.9539632797241211e-01</leafValues></_>
    <_>
      <internalNodes>
        0 -1 28648 -186458286 -182815909 1346426061 832131662
        -1719186735 -499923302 994675135 2136964991</internalNodes>
      <leafValues>
        -5.3672260046005249e-01 3.4089806675910950e-01</leafValues></_>
    <_>
      <internalNodes>
        0 -1 87708 -92868737 -1179843 2129086477 1330318414 540079546
        -277676077 677392418 -1344572182</internalNodes>
      <leafValues>
        -4.1718453168869019e-01 4.4608545303344727e-01</leafValues></_>
    <_>
      <internalNodes>
        0 -1 58720 -269287417 684253326 1343354364 -1827941941
        -341116412 -2121758638 1621995760 -13172821</internalNodes>
      <leafValues>
        -5.3905689716339111e-01 3.3122161030769348e-01</leafValues></_></weakClassifiers></stage2>
</opencv_storage>
