<?xml version="1.0"?>
<opencv_storage>
<stage3>
  <maxWeakCount>11</maxWeakCount>
  <stageThreshold>-1.3834291696548462e+00</stageThreshold>
  <weakClassifiers>
    <_>
      <internalNodes>
        0 -1 92893 -26235001 -221041906 -26113669 -101077187 -875892757
        -5578274 -1881878645 -2101249</internalNodes>
      <leafValues>
        -6.4067578315734863e-01 3.1345352530479431e-01</leafValues></_>
    <_>
      <internalNodes>
        0 -1 121138 1356647662 -743121548 -418524683 -40985792
        1433486783 -1221571661 196739758 -4537718</internalNodes>
      <leafValues>
        -5.2733975648880005e-01 3.2357388734817505e-01</leafValues></_>
    <_>
      <internalNodes>
        0 -1 67879 -101449837 1442660436 -1431278559 1357930544
        -546120133 -33025 -1172137685 -73667246</internalNodes>
      <leafValues>
        -3.9109763503074646e-01 4.2320859432220459e-01</leafValues></_>
    <_>
      <internalNodes>
        0 -1 84206 -72154342 -1256172526 1367860727 -4259436 479286168
        -41920124 2072234493 -307289878</internalNodes>
      <leafValues>
        -4.0753057599067688e-01 4.0620329976081848e-01</leafValues></_>
    <_>
      <internalNodes>
        0 -1 112902 -723853576 -39266971 -1022666765 -777515872
        2093634955 984490914 1478496690 2095480096</internalNodes>
      <leafValues>
        -5.8496820926666260e-01 2.9873216152191162e-01</leafValues></_>
    <_>
      <internalNodes>
        0 -1 121347 782765712 782641682 1846364931 -1002065455
        -1700842639 -2145603320 -1482441772 -272991536</internalNodes>
      <leafValues>
        -6.0202741622924805e-01 2.6254355907440186e-01</leafValues></_>
    <_>
      <internalNodes>
        0 -1 116812 1779366654 -581378827 1426363892 -1683321954
        1009031248 -1366794475 -1190125172 -1683029093</internalNodes>
      <leafValues>
        -5.2777510881423950e-01 3.2482942938804626e-01</leafValues></_>
    <_>
      <internalNodes>
        0 -1 57379 -1937598544 -1362825024 -787064717 -29063934
        -1552950619 -1533410413 -1911436297 -1977228207</internalNodes>
      <leafValues>
        -5.1852715015411377e-01 3.2803958654403687e-01</leafValues></_>
    <_>
      <internalNodes>
        0 -1 3929 -1043339633 -2037721721 1088017910 -338280432
        -421831349 753798 1099690295 -710968961</internalNodes>
      <leafValues>
        -4.8615133762359619e-01 3.3194974064826965e-01</leafValues></_>
    <_>
      <internalNodes>
        0 -1 73443 -656748075 2026741293 2115338975 489010108 -914322749
        2050464886 1870694543 1846139119</internalNodes>
      <leafValues>
        -4.1576406359672546e-01 4.1951230168342590e-01</leafValues></_>
    <_>
      <internalNodes>
        0 -1 42795 687474791 -1282522225 1107514495 -1467323302
        -243596148 -821720561 -754353936 -21604422</internalNodes>
      <leafValues>
        -4.7170090675354004e-01 3.5632574558258057e-01</leafValues></_></weakClassifiers></stage3>
</opencv_storage>
