<?xml version="1.0"?>
<opencv_storage>
<stage13>
  <maxWeakCount>14</maxWeakCount>
  <stageThreshold>-1.4880014657974243e+00</stageThreshold>
  <weakClassifiers>
    <_>
      <internalNodes>
        0 -1 88385 1431754207 1072879519 -884867201 -6425607 -66853990
        -24983109 -365474627 -1344275205</internalNodes>
      <leafValues>
        -5.4499685764312744e-01 1.5797317028045654e-01</leafValues></_>
    <_>
      <internalNodes>
        0 -1 131274 41134847 284824472 -805093387 391628361 1715233114
        1853557280 -862549814 -547098209</internalNodes>
      <leafValues>
        -3.7551286816596985e-01 2.7412185072898865e-01</leafValues></_>
    <_>
      <internalNodes>
        0 -1 80100 -1560364073 -1636384513 -1330022561 -1370983938
        819814410 -275851287 1791062805 -52772684</internalNodes>
      <leafValues>
        -3.7975162267684937e-01 2.7858898043632507e-01</leafValues></_>
    <_>
      <internalNodes>
        0 -1 97787 -678173784 -176138046 1126009458 -4541220 -243118098
        632875956 1373835230 629346456</internalNodes>
      <leafValues>
        -4.7238573431968689e-01 2.2267848253250122e-01</leafValues></_>
    <_>
      <internalNodes>
        0 -1 5311 -295735633 778814565 -2138849102 44224719 -347782634
        1172506740 1984320225 1613233634</internalNodes>
      <leafValues>
        -4.7567257285118103e-01 2.5018933415412903e-01</leafValues></_>
    <_>
      <internalNodes>
        0 -1 94248 -130703309 285586440 -1878471693 730062154
        -1974378495 1102786873 1498090267 1260280687</internalNodes>
      <leafValues>
        -3.9379131793975830e-01 2.8635397553443909e-01</leafValues></_>
    <_>
      <internalNodes>
        0 -1 146907 -134228581 -1481044419 805040085 -167903377
        2050809740 729791751 1004373418 -144443697</internalNodes>
      <leafValues>
        -2.8008902072906494e-01 4.4005006551742554e-01</leafValues></_>
    <_>
      <internalNodes>
        0 -1 93436 -139482189 -1354796226 -1090568361 -638243209
        -2042652737 -17334409 -1294945602 -35325965</internalNodes>
      <leafValues>
        -2.2879050672054291e-01 4.7926667332649231e-01</leafValues></_>
    <_>
      <internalNodes>
        0 -1 109659 -24711519 72743128 -1794512602 -1718643039
        1171522041 741560548 718293549 1218596259</internalNodes>
      <leafValues>
        -4.4465705752372742e-01 2.6385083794593811e-01</leafValues></_>
    <_>
      <internalNodes>
        0 -1 140116 -302291421 -763773615 -1410605057 -2136703505
        -1409460364 -1233682825 -524549 -287585858</internalNodes>
      <leafValues>
        -2.9961228370666504e-01 4.1379842162132263e-01</leafValues></_>
    <_>
      <internalNodes>
        0 -1 113014 1552438692 -1781033978 1258936791 -645742428
        1972253370 444785642 1604982665 2091656576</internalNodes>
      <leafValues>
        -5.8279716968536377e-01 2.2062526643276215e-01</leafValues></_>
    <_>
      <internalNodes>
        0 -1 6512 1992352238 -245399073 -1811742694 1472217116 -45991768
        -1954536536 -2114994221 1930406458</internalNodes>
      <leafValues>
        -3.8066285848617554e-01 3.3187913894653320e-01</leafValues></_>
    <_>
      <internalNodes>
        0 -1 117433 1868529571 713737634 340247765 -1638466872
        -1508439197 -1547052864 -1680930003 -44047900</internalNodes>
      <leafValues>
        -3.8609337806701660e-01 3.2256007194519043e-01</leafValues></_>
    <_>
      <internalNodes>
        0 -1 319 -656113010 -1618853423 -2129858412 1535099006 278008449
        462627858 369246465 1642157442</internalNodes>
      <leafValues>
        -4.8816546797752380e-01 2.5760734081268311e-01</leafValues></_></weakClassifiers></stage13>
</opencv_storage>
