<?xml version="1.0"?>
<opencv_storage>
<stage5>
  <maxWeakCount>11</maxWeakCount>
  <stageThreshold>-1.8598514795303345e+00</stageThreshold>
  <weakClassifiers>
    <_>
      <internalNodes>
        0 -1 88634 -329275641 -35914413 -136716801 -572916361 -926226449
        -276238182 -74593281 -1056801</internalNodes>
      <leafValues>
        -6.4045721292495728e-01 2.0146968960762024e-01</leafValues></_>
    <_>
      <internalNodes>
        0 -1 73605 -761605999 2143077597 -372051719 -644311830
        1939009427 -974071877 1060302264 957463674</internalNodes>
      <leafValues>
        -5.3087764978408813e-01 2.5258901715278625e-01</leafValues></_>
    <_>
      <internalNodes>
        0 -1 7029 -433946382 -14827164 -576716865 -1157268836 684178874
        -1339424204 -1948324689 189017856</internalNodes>
      <leafValues>
        -4.5065927505493164e-01 3.0189538002014160e-01</leafValues></_>
    <_>
      <internalNodes>
        0 -1 78966 1964503317 26410894 -1880096769 -1349862415
        -730061422 -1189218308 -840448888 -1892694334</internalNodes>
      <leafValues>
        -3.5514986515045166e-01 4.1872540116310120e-01</leafValues></_>
    <_>
      <internalNodes>
        0 -1 57128 -393729 -67115275 187597369 335118933 -30671297
        -536883593 -1576993013 -67372069</internalNodes>
      <leafValues>
        -2.9424896836280823e-01 5.2273291349411011e-01</leafValues></_>
    <_>
      <internalNodes>
        0 -1 11490 -1060376785 -1025795634 843328724 -229993782
        1175092047 86360302 -502577174 1945621303</internalNodes>
      <leafValues>
        -4.8150455951690674e-01 3.0743664503097534e-01</leafValues></_>
    <_>
      <internalNodes>
        0 -1 89104 657926967 -1093201059 -2055152875 -140682735
        185570493 -925709130 998437317 413491313</internalNodes>
      <leafValues>
        -5.3584223985671997e-01 2.9633814096450806e-01</leafValues></_>
    <_>
      <internalNodes>
        0 -1 121305 1792191130 867566339 -133299681 -718660933
        -997145443 -1321143451 -1464882501 2101717386</internalNodes>
      <leafValues>
        -4.5240941643714905e-01 3.3100003004074097e-01</leafValues></_>
    <_>
      <internalNodes>
        0 -1 117764 -64306939 -1596403068 1646175771 -88050608
        -1422191092 -123038647 -1281955977 -1636670991</internalNodes>
      <leafValues>
        -5.0085133314132690e-01 3.0199530720710754e-01</leafValues></_>
    <_>
      <internalNodes>
        0 -1 156967 -1625368813 -1128445713 154324807 -627969809
        -76567280 333040730 2000951696 -1575752794</internalNodes>
      <leafValues>
        -4.2905342578887939e-01 3.3994057774543762e-01</leafValues></_>
    <_>
      <internalNodes>
        0 -1 91879 -91300388 -738733060 1897387965 -13662048 1242602427
        -108535159 265062035 -121852799</internalNodes>
      <leafValues>
        -4.0483587980270386e-01 3.7880802154541016e-01</leafValues></_></weakClassifiers></stage5>
</opencv_storage>
