<?xml version="1.0"?>
<opencv_storage>
<stage8>
  <maxWeakCount>12</maxWeakCount>
  <stageThreshold>-1.6158175468444824e+00</stageThreshold>
  <weakClassifiers>
    <_>
      <internalNodes>
        0 -1 93216 -422187217 -1719680590 -204148257 -33697635
        -811613715 -58005479 -79566850 -1049665</internalNodes>
      <leafValues>
        -6.1196106672286987e-01 1.4598539471626282e-01</leafValues></_>
    <_>
      <internalNodes>
        0 -1 124306 -13050418 -1089449958 1881395453 -319222652
        -1876915736 -296826405 116623787 -613446998</internalNodes>
      <leafValues>
        -4.4244179129600525e-01 2.8555315732955933e-01</leafValues></_>
    <_>
      <internalNodes>
        0 -1 357 -1899319298 -485612241 -585132137 -644101739 705156557
        1176603843 86103537 73617573</internalNodes>
      <leafValues>
        -5.1861357688903809e-01 2.3325739800930023e-01</leafValues></_>
    <_>
      <internalNodes>
        0 -1 83972 1430647809 288932300 556570975 -1074751651 1559613840
        -1109393246 1684512764 -1961892885</internalNodes>
      <leafValues>
        -3.6117058992385864e-01 3.8512763381004333e-01</leafValues></_>
    <_>
      <internalNodes>
        0 -1 100336 -150340649 -1116311818 -823177457 -861532470
        405059282 -952107531 483131731 -660643573</internalNodes>
      <leafValues>
        -3.3979135751724243e-01 3.9232638478279114e-01</leafValues></_>
    <_>
      <internalNodes>
        0 -1 58058 418536688 2015134924 1358446153 1024921991 334468008
        1099942016 1961533278 456592442</internalNodes>
      <leafValues>
        -6.3097715377807617e-01 2.0200021564960480e-01</leafValues></_>
    <_>
      <internalNodes>
        0 -1 155535 -138447753 -941117449 -67207433 -134217737
        -138961033 -1912867369 -1854472284 -628629589</internalNodes>
      <leafValues>
        -3.2342398166656494e-01 4.1707518696784973e-01</leafValues></_>
    <_>
      <internalNodes>
        0 -1 52074 -704653729 1901192340 52612961 1666959472 1936118837
        1672458491 990085919 2040051001</internalNodes>
      <leafValues>
        -3.7191802263259888e-01 3.6605113744735718e-01</leafValues></_>
    <_>
      <internalNodes>
        0 -1 22758 -1936986525 1077062092 -1065213860 1087805580
        -1661993517 151979179 1390604663 1174360509</internalNodes>
      <leafValues>
        -4.8067095875740051e-01 2.8509342670440674e-01</leafValues></_>
    <_>
      <internalNodes>
        0 -1 135538 -1398799147 -562086553 -972947715 -250661189
        -393496355 -1463039479 1021548893 -1976143551</internalNodes>
      <leafValues>
        -4.7072768211364746e-01 2.7958697080612183e-01</leafValues></_>
    <_>
      <internalNodes>
        0 -1 47985 -455202277 -291579290 826643207 -523841412 69677878
        -893345784 155255763 -12650526</internalNodes>
      <leafValues>
        -4.0914663672447205e-01 3.2867872714996338e-01</leafValues></_>
    <_>
      <internalNodes>
        0 -1 124292 1883302287 839056015 -1069465508 -946518272
        1931029980 -1144905469 2013686472 1991139406</internalNodes>
      <leafValues>
        -4.7408154606819153e-01 2.8935921192169189e-01</leafValues></_></weakClassifiers></stage8>
</opencv_storage>
