<?xml version="1.0"?>
<opencv_storage>
<stage11>
  <maxWeakCount>12</maxWeakCount>
  <stageThreshold>-1.3277850151062012e+00</stageThreshold>
  <weakClassifiers>
    <_>
      <internalNodes>
        0 -1 121195 -198712669 -1026760491 -927076185 -627584609
        -95689107 -223625077 -209270185 -1069089</internalNodes>
      <leafValues>
        -5.6930357217788696e-01 1.0499359667301178e-01</leafValues></_>
    <_>
      <internalNodes>
        0 -1 88683 -1900401167 1602714184 -715686955 -2502180
        -1407620453 -1221951381 -1624379137 -1080077159</internalNodes>
      <leafValues>
        -3.3496290445327759e-01 3.4375718235969543e-01</leafValues></_>
    <_>
      <internalNodes>
        0 -1 113420 1163537837 -1613055572 1237331205 1812773892
        326057212 730558666 2132557560 750134952</internalNodes>
      <leafValues>
        -5.7027417421340942e-01 1.9915086030960083e-01</leafValues></_>
    <_>
      <internalNodes>
        0 -1 88997 -751311087 330364730 1543405567 -246100 -153634819
        -1109426314 -527665 -552249510</internalNodes>
      <leafValues>
        -2.7109533548355103e-01 4.0458258986473083e-01</leafValues></_>
    <_>
      <internalNodes>
        0 -1 124603 -262898549 1715515817 269413585 -793693803
        1202540366 -165072312 -288764778 -1198803477</internalNodes>
      <leafValues>
        -3.5127466917037964e-01 3.3906289935112000e-01</leafValues></_>
    <_>
      <internalNodes>
        0 -1 137394 -750092286 353428099 1904472408 1083490694 8067966
        -1286576121 2112749040 -394265221</internalNodes>
      <leafValues>
        -4.4466122984886169e-01 2.6112517714500427e-01</leafValues></_>
    <_>
      <internalNodes>
        0 -1 136379 671140853 -1652307571 -1874094603 -205065520
        574859469 -87842599 722921749 782255424</internalNodes>
      <leafValues>
        -6.3304430246353149e-01 1.7022566497325897e-01</leafValues></_>
    <_>
      <internalNodes>
        0 -1 119956 554380849 -1524065865 181492605 -1245996673
        -71735245 -807287540 -97169305 -537107784</internalNodes>
      <leafValues>
        -4.1398793458938599e-01 2.8504142165184021e-01</leafValues></_>
    <_>
      <internalNodes>
        0 -1 89061 1835513812 -1501489919 1939952 40912576 261244677
        1076340352 260737979 2140795659</internalNodes>
      <leafValues>
        -5.1869028806686401e-01 2.3545925319194794e-01</leafValues></_>
    <_>
      <internalNodes>
        0 -1 50028 -865717792 927019100 1469170167 789408941 -271984218
        -1869577853 -192947752 327191301</internalNodes>
      <leafValues>
        -4.7594696283340454e-01 2.6847067475318909e-01</leafValues></_>
    <_>
      <internalNodes>
        0 -1 83362 -103248113 302917474 -1709011491 761037148 1283649414
        973132538 705416719 1029197716</internalNodes>
      <leafValues>
        -6.0384559631347656e-01 1.8606212735176086e-01</leafValues></_>
    <_>
      <internalNodes>
        0 -1 160737 -620864931 1783961868 -671025697 538598526
        1518338052 134383721 -67728752 573764167</internalNodes>
      <leafValues>
        -5.1702672243118286e-01 2.3677028715610504e-01</leafValues></_></weakClassifiers></stage11>
</opencv_storage>
