<?xml version="1.0"?>
<opencv_storage>
<stage9>
  <maxWeakCount>13</maxWeakCount>
  <stageThreshold>-1.5259791612625122e+00</stageThreshold>
  <weakClassifiers>
    <_>
      <internalNodes>
        0 -1 92514 2121779175 826267007 -2062034017 532010461 -86843226
        1605423491 -405606929 -1412436801</internalNodes>
      <leafValues>
        -5.7825368642807007e-01 1.5824915468692780e-01</leafValues></_>
    <_>
      <internalNodes>
        0 -1 149718 1581249573 1341813549 -1358367460 1597624572
        -204740619 -956386337 -1830948704 -423886933</internalNodes>
      <leafValues>
        -3.8531401753425598e-01 3.1517136096954346e-01</leafValues></_>
    <_>
      <internalNodes>
        0 -1 121277 -570757124 -468159693 -1052476428 -539721745
        -899825803 1001628141 -800797964 434457821</internalNodes>
      <leafValues>
        -5.1696783304214478e-01 2.3265621066093445e-01</leafValues></_>
    <_>
      <internalNodes>
        0 -1 44077 825132496 -1221591016 -1947644993 1024176299
        -2102686736 -1875179390 -1713112066 -1839037440</internalNodes>
      <leafValues>
        -4.2358660697937012e-01 2.9921567440032959e-01</leafValues></_>
    <_>
      <internalNodes>
        0 -1 127948 -1062870049 -1705973903 -67174401 -1983594636
        1710693466 -285376674 -42471858 -789042</internalNodes>
      <leafValues>
        -3.3788365125656128e-01 3.7452119588851929e-01</leafValues></_>
    <_>
      <internalNodes>
        0 -1 22523 1493883895 -154007826 -1500736171 1223165878
        1770254679 -400995810 600357228 2066390522</internalNodes>
      <leafValues>
        -3.7606212496757507e-01 3.3113786578178406e-01</leafValues></_>
    <_>
      <internalNodes>
        0 -1 4684 -489951693 1250614222 -1068159568 810205344 -958717371
        1390131295 1943269335 1683994587</internalNodes>
      <leafValues>
        -5.1842880249023438e-01 2.2862555086612701e-01</leafValues></_>
    <_>
      <internalNodes>
        0 -1 158652 -1869673961 1825723712 -1605311115 -1839227138
        -47153312 -82247018 656300912 -1683318883</internalNodes>
      <leafValues>
        -4.1424885392189026e-01 2.9971733689308167e-01</leafValues></_>
    <_>
      <internalNodes>
        0 -1 105975 -76108998 -1823424751 -619670736 -42981595
        -1870034693 -123524213 -481735697 267261419</internalNodes>
      <leafValues>
        -4.7724285721778870e-01 2.5650489330291748e-01</leafValues></_>
    <_>
      <internalNodes>
        0 -1 30479 -327537857 -2104263873 -652773928 -759954768
        1755203764 1598562310 1516830716 -10930080</internalNodes>
      <leafValues>
        -4.2832013964653015e-01 3.0213716626167297e-01</leafValues></_>
    <_>
      <internalNodes>
        0 -1 40306 957127282 1795161048 -1849638795 187037716 1386131698
        1778813591 -1682852424 1921907823</internalNodes>
      <leafValues>
        -4.6929106116294861e-01 2.5546884536743164e-01</leafValues></_>
    <_>
      <internalNodes>
        0 -1 88097 1040093684 -192547086 -31622416 2008744938 861215015
        714367902 663033559 -1364451306</internalNodes>
      <leafValues>
        -5.2848434448242188e-01 2.4704840779304504e-01</leafValues></_>
    <_>
      <internalNodes>
        0 -1 64269 -1693249801 489001075 -1661968523 -469461924
        -1609580370 -1707966422 145268340 1709939599</internalNodes>
      <leafValues>
        -4.3183574080467224e-01 2.9294273257255554e-01</leafValues></_></weakClassifiers></stage9>
</opencv_storage>
