<?xml version="1.0"?>
<opencv_storage>
<stage10>
  <maxWeakCount>18</maxWeakCount>
  <stageThreshold>-1.5605543851852417e+00</stageThreshold>
  <weakClassifiers>
    <_>
      <internalNodes>
        0 -1 83900 -749601409 -582547133 206880639 327102073 -376702434
        -609533106 -1902657777 -53249</internalNodes>
      <leafValues>
        -3.8977926969528198e-01 3.4749209880828857e-01</leafValues></_>
    <_>
      <internalNodes>
        0 -1 157377 -604909062 -208624685 -1044750605 -685661198
        -1986393873 -862926108 771211259 -19062296</internalNodes>
      <leafValues>
        -3.2336622476577759e-01 3.2939440011978149e-01</leafValues></_>
    <_>
      <internalNodes>
        0 -1 104212 -889263534 -363267264 -1839954383 -856335280
        -828611786 -830098617 -866600438 -890307984</internalNodes>
      <leafValues>
        -4.6201249957084656e-01 2.0848771929740906e-01</leafValues></_>
    <_>
      <internalNodes>
        0 -1 147102 -698685523 400700817 -1874548745 299608370
        1079289520 1443418774 -1560827520 997058584</internalNodes>
      <leafValues>
        -3.5352084040641785e-01 2.8613603115081787e-01</leafValues></_>
    <_>
      <internalNodes>
        0 -1 244883 -132160761 20412243 -1975270008 1232589179
        -201342200 -1857853114 -1790251240 -80479621</internalNodes>
      <leafValues>
        -3.2355967164039612e-01 2.9609966278076172e-01</leafValues></_>
    <_>
      <internalNodes>
        0 -1 224673 578424447 1389365017 -1067056846 -764841251
        1961833022 -1615635994 -1169249333 -99943510</internalNodes>
      <leafValues>
        -3.5434177517890930e-01 2.7668663859367371e-01</leafValues></_>
    <_>
      <internalNodes>
        0 -1 61669 18687766 1999722365 864836890 -1151226467 1651729851
        2072593457 580977885 226880154</internalNodes>
      <leafValues>
        -3.9628458023071289e-01 2.6253542304039001e-01</leafValues></_>
    <_>
      <internalNodes>
        0 -1 88530 545305686 -1500924288 1326468569 1595261044 -73211393
        -1199986135 848625647 743480222</internalNodes>
      <leafValues>
        -3.8084954023361206e-01 2.4972942471504211e-01</leafValues></_>
    <_>
      <internalNodes>
        0 -1 59402 -1901349597 101622984 1959477584 -455813120 721859561
        -2080077765 623592241 1196622065</internalNodes>
      <leafValues>
        -4.3966659903526306e-01 2.5564485788345337e-01</leafValues></_>
    <_>
      <internalNodes>
        0 -1 138029 1414848593 891961776 -820978093 -1625234982
        1562705201 1338020048 -448763467 227488334</internalNodes>
      <leafValues>
        -4.4671428203582764e-01 2.3565778136253357e-01</leafValues></_>
    <_>
      <internalNodes>
        0 -1 60313 -582825152 75783322 -1234016540 286795677 -466594016
        1084528865 -1352003330 234295415</internalNodes>
      <leafValues>
        -5.8949667215347290e-01 1.8141730129718781e-01</leafValues></_>
    <_>
      <internalNodes>
        0 -1 49713 1123462891 -422787233 1244784876 819127536 1384863503
        -1184921023 -142004108 -142875532</internalNodes>
      <leafValues>
        -3.8748610019683838e-01 2.7716904878616333e-01</leafValues></_>
    <_>
      <internalNodes>
        0 -1 189680 -1116868933 -1955083545 1559215853 1231769096
        1851037693 -59376257 2097005769 -124018258</internalNodes>
      <leafValues>
        -2.9047214984893799e-01 3.8607457280158997e-01</leafValues></_>
    <_>
      <internalNodes>
        0 -1 139104 37368531 -1694863144 -1056910911 952668184
        1669507511 -1417559995 729870592 -20022096</internalNodes>
      <leafValues>
        -3.7692204117774963e-01 2.9394072294235229e-01</leafValues></_>
    <_>
      <internalNodes>
        0 -1 254822 1885719294 -134461752 1544366835 -581663087
        -202250534 -1686120726 156217547 1527756699</internalNodes>
      <leafValues>
        -2.9928982257843018e-01 3.5462933778762817e-01</leafValues></_>
    <_>
      <internalNodes>
        0 -1 262748 -144935319 492724231 -1726662214 33956703 -84400064
        1549845187 1244487064 677532199</internalNodes>
      <leafValues>
        -4.2932963371276855e-01 2.4002932012081146e-01</leafValues></_>
    <_>
      <internalNodes>
        0 -1 182934 18804394 586184 578864850 -695086826 1353198142
        -1947182602 -753245258 -294076170</internalNodes>
      <leafValues>
        -4.8014947772026062e-01 2.2572369873523712e-01</leafValues></_>
    <_>
      <internalNodes>
        0 -1 205162 1642068991 558488111 1996259118 -819335622
        1363050472 -1116733441 2105386063 -336626126</internalNodes>
      <leafValues>
        -3.0289471149444580e-01 3.6953273415565491e-01</leafValues></_></weakClassifiers></stage10>
</opencv_storage>
