<?xml version="1.0"?>
<opencv_storage>
<stage13>
  <maxWeakCount>19</maxWeakCount>
  <stageThreshold>-1.2848067283630371e+00</stageThreshold>
  <weakClassifiers>
    <_>
      <internalNodes>
        0 -1 165781 -271457917 -1653082101 -44720877 -575941501
        172044287 266682865 1268289465 -1062005</internalNodes>
      <leafValues>
        -4.4588103890419006e-01 2.4422325193881989e-01</leafValues></_>
    <_>
      <internalNodes>
        0 -1 145534 -1098907878 1419724984 -977938477 1480578280
        533132971 -551115557 1867967923 -596247568</internalNodes>
      <leafValues>
        -3.7096777558326721e-01 2.7313977479934692e-01</leafValues></_>
    <_>
      <internalNodes>
        0 -1 253786 506404209 -70307466 1573123157 2066962901 -115423032
        -220575078 -639963500 -7669000</internalNodes>
      <leafValues>
        -2.9780396819114685e-01 3.3011874556541443e-01</leafValues></_>
    <_>
      <internalNodes>
        0 -1 138422 -776482025 -1290539104 -268697615 -538132512
        -710060545 -1365968986 -973472577 -41807390</internalNodes>
      <leafValues>
        -2.3124188184738159e-01 4.0952408313751221e-01</leafValues></_>
    <_>
      <internalNodes>
        0 -1 47096 -963010731 939563662 -488997440 842717977 -1713434108
        813663402 -941584343 2054935835</internalNodes>
      <leafValues>
        -3.4841236472129822e-01 2.8565075993537903e-01</leafValues></_>
    <_>
      <internalNodes>
        0 -1 253881 69461819 243942071 -1247743151 794248278 -1325926971
        99600473 346574992 1079765075</internalNodes>
      <leafValues>
        -3.8796696066856384e-01 2.1922175586223602e-01</leafValues></_>
    <_>
      <internalNodes>
        0 -1 27339 -648154926 -35580742 -2060641203 1475209853
        -1368608294 374440816 -413812773 1393414315</internalNodes>
      <leafValues>
        -2.6386591792106628e-01 3.5700979828834534e-01</leafValues></_>
    <_>
      <internalNodes>
        0 -1 146180 -487163595 -154001940 421506552 -188458032
        -1095037551 -1561949813 -1969436052 -2014354549</internalNodes>
      <leafValues>
        -3.3563390374183655e-01 2.7720206975936890e-01</leafValues></_>
    <_>
      <internalNodes>
        0 -1 165555 -2140246865 570946543 -1931204746 1053303300
        571635672 -66126854 2075341756 715320570</internalNodes>
      <leafValues>
        -3.6495891213417053e-01 2.6347759366035461e-01</leafValues></_>
    <_>
      <internalNodes>
        0 -1 165920 -957343945 -919548177 2117105489 -40879683 862213654
        -1188209869 357865655 -842877797</internalNodes>
      <leafValues>
        -3.1918501853942871e-01 2.8718486428260803e-01</leafValues></_>
    <_>
      <internalNodes>
        0 -1 0 576911494 -1937317673 1918136659 1230063948 844034219
        -1556905772 1133639935 1810346655</internalNodes>
      <leafValues>
        -3.9826878905296326e-01 2.3181214928627014e-01</leafValues></_>
    <_>
      <internalNodes>
        0 -1 248814 -1325440943 548673797 -795669641 1090454111
        -825327612 628558146 -1262699072 708050463</internalNodes>
      <leafValues>
        -3.7207797169685364e-01 2.7346354722976685e-01</leafValues></_>
    <_>
      <internalNodes>
        0 -1 205363 -260470578 994432534 956387910 293925124 1887526169
        1996720242 -390711058 -438050900</internalNodes>
      <leafValues>
        -3.5411188006401062e-01 2.7304980158805847e-01</leafValues></_>
    <_>
      <internalNodes>
        0 -1 137656 1346802263 -178923231 1133652374 -600796239
        241083333 577933650 194609545 1639956925</internalNodes>
      <leafValues>
        -3.4020832180976868e-01 2.8916946053504944e-01</leafValues></_>
    <_>
      <internalNodes>
        0 -1 6223 -1802848846 -1093008186 -1961620516 -1544515374
        581136822 -994704991 1087345997 1144068369</internalNodes>
      <leafValues>
        -4.7592377662658691e-01 2.0421920716762543e-01</leafValues></_>
    <_>
      <internalNodes>
        0 -1 97371 -1049943378 893900064 -918055780 -552554282
        1204645881 -1028491248 2026206972 510125424</internalNodes>
      <leafValues>
        -4.0643283724784851e-01 2.3974987864494324e-01</leafValues></_>
    <_>
      <internalNodes>
        0 -1 264300 1888549626 -1768869694 -1937764262 1551965978
        -1701519169 855703574 1231354809 1466018202</internalNodes>
      <leafValues>
        -3.9565864205360413e-01 2.4567638337612152e-01</leafValues></_>
    <_>
      <internalNodes>
        0 -1 47673 1694552190 -975304102 1610617556 43066293 -401914020
        -1869575359 -1903752384 1944383012</internalNodes>
      <leafValues>
        -4.7167757153511047e-01 2.3066203296184540e-01</leafValues></_>
    <_>
      <internalNodes>
        0 -1 190704 471464491 -2063610716 1249984643 -464916029
        599918703 -1917255296 531493735 -1395184224</internalNodes>
      <leafValues>
        -3.8869810104370117e-01 2.6538971066474915e-01</leafValues></_></weakClassifiers></stage13>
</opencv_storage>
