<?xml version="1.0"?>
<opencv_storage>
<stage9>
  <maxWeakCount>18</maxWeakCount>
  <stageThreshold>-1.1981331110000610e+00</stageThreshold>
  <weakClassifiers>
    <_>
      <internalNodes>
        0 -1 137214 -585 -33568033 -620774913 -573603625 -1141973069
        -536879233 -1146553413 -4195589</internalNodes>
      <leafValues>
        -3.3010697364807129e-01 4.8682558536529541e-01</leafValues></_>
    <_>
      <internalNodes>
        0 -1 148239 506668977 -558919582 1535236786 -541134382
        1066044824 -879850680 315158932 -606092848</internalNodes>
      <leafValues>
        -3.2233545184135437e-01 3.4912186861038208e-01</leafValues></_>
    <_>
      <internalNodes>
        0 -1 253938 -635764143 -214083973 2013265653 -654856529
        -1350844991 -50413698 -270270528 -1097943812</internalNodes>
      <leafValues>
        -2.9062545299530029e-01 3.7282317876815796e-01</leafValues></_>
    <_>
      <internalNodes>
        0 -1 147805 1474287603 525276599 -129311787 -705326219
        -690827273 227836088 -194999579 30396895</internalNodes>
      <leafValues>
        -3.6211624741554260e-01 2.7445405721664429e-01</leafValues></_>
    <_>
      <internalNodes>
        0 -1 72625 -564147202 -274531546 1904214421 1661168006
        1362680484 -164600557 -327193863 743915966</internalNodes>
      <leafValues>
        -3.5755312442779541e-01 2.9157266020774841e-01</leafValues></_>
    <_>
      <internalNodes>
        0 -1 229485 -12620171 -940683393 -1884328065 -1654707329
        -298078651 -1879065729 -1863050228 -1725223665</internalNodes>
      <leafValues>
        -2.7616095542907715e-01 3.7335905432701111e-01</leafValues></_>
    <_>
      <internalNodes>
        0 -1 222957 -1738537388 1146451295 -920826467 33570359
        -675521492 9427003 -376314932 3324959</internalNodes>
      <leafValues>
        -4.9314036965370178e-01 1.9374650716781616e-01</leafValues></_>
    <_>
      <internalNodes>
        0 -1 61620 -1529185228 -297119571 2097592510 -278785894
        -176343631 2105710593 -980814988 1571250570</internalNodes>
      <leafValues>
        -4.6929964423179626e-01 2.3669449985027313e-01</leafValues></_>
    <_>
      <internalNodes>
        0 -1 141093 -120720216 -741739684 490846769 2038661849 -75171901
        914906292 167864571 219017914</internalNodes>
      <leafValues>
        -3.4078419208526611e-01 3.0689486861228943e-01</leafValues></_>
    <_>
      <internalNodes>
        0 -1 230295 1614234263 -354667083 985591530 2054651885
        -201887202 -536903815 -436810517 -91560701</internalNodes>
      <leafValues>
        -2.9652306437492371e-01 3.7359139323234558e-01</leafValues></_>
    <_>
      <internalNodes>
        0 -1 267929 -20977321 -1476543708 -1610614553 -1700265991
        -78172127 251059516 1430151216 -1260073798</internalNodes>
      <leafValues>
        -3.1827306747436523e-01 3.4544327855110168e-01</leafValues></_>
    <_>
      <internalNodes>
        0 -1 8626 -473962773 1273948838 536738642 -219173278 645911723
        1148641108 97732563 -672141729</internalNodes>
      <leafValues>
        -2.6766029000282288e-01 3.9403381943702698e-01</leafValues></_>
    <_>
      <internalNodes>
        0 -1 106030 -1196121707 1058203640 1539781924 -1404300788
        -79629122 -291886426 -175424343 1693613114</internalNodes>
      <leafValues>
        -4.6309864521026611e-01 2.2826592624187469e-01</leafValues></_>
    <_>
      <internalNodes>
        0 -1 205279 73465762 1885392928 -1862280242 654692352 1947093868
        387086475 -147267895 -1686558695</internalNodes>
      <leafValues>
        -4.5277497172355652e-01 2.3489025235176086e-01</leafValues></_>
    <_>
      <internalNodes>
        0 -1 181714 -171193798 -173612434 -751847244 1066385642
        829479732 429373327 1649279468 93321134</internalNodes>
      <leafValues>
        -4.1998749971389771e-01 2.5507882237434387e-01</leafValues></_>
    <_>
      <internalNodes>
        0 -1 165216 -1501429608 -1633013352 1124813269 2004722576
        -1706296847 -334511926 420213425 -1078318607</internalNodes>
      <leafValues>
        -3.4318488836288452e-01 3.2768306136131287e-01</leafValues></_>
    <_>
      <internalNodes>
        0 -1 240451 -546327127 292802829 -917656188 -1757155109
        -1190134347 762044955 -2079473508 -1303709217</internalNodes>
      <leafValues>
        -3.2041263580322266e-01 3.5892209410667419e-01</leafValues></_>
    <_>
      <internalNodes>
        0 -1 86035 -972085153 -1736007189 -1063270774 -62876760
        1199989379 1294600503 1768710128 -91859164</internalNodes>
      <leafValues>
        -3.8893377780914307e-01 3.0356550216674805e-01</leafValues></_></weakClassifiers></stage9>
</opencv_storage>
