<?xml version="1.0"?>
<opencv_storage>
<stage0>
  <maxWeakCount>6</maxWeakCount>
  <stageThreshold>-1.2946158647537231e+00</stageThreshold>
  <weakClassifiers>
    <_>
      <internalNodes>
        0 -1 138075 -256708432 -67437315 -239340043 -100926241
        -881146437 -532513 1932784639 -264705</internalNodes>
      <leafValues>
        -6.3562244176864624e-01 6.4650362730026245e-01</leafValues></_>
    <_>
      <internalNodes>
        0 -1 173362 -127413586 -75014014 -2113732602 -1824576593
        75505680 83951889 83886220 1069220411</internalNodes>
      <leafValues>
        -6.0021370649337769e-01 4.2064496874809265e-01</leafValues></_>
    <_>
      <internalNodes>
        0 -1 117289 -8455425 -14947222 2141881650 -1088319704 -942698582
        -832655401 -1001455608 -810578933</internalNodes>
      <leafValues>
        -4.2554742097854614e-01 5.4124140739440918e-01</leafValues></_>
    <_>
      <internalNodes>
        0 -1 96514 -154086831 -148341054 -994797089 294725363
        -1465071948 712444238 -1338904401 1065352187</internalNodes>
      <leafValues>
        -4.7358876466751099e-01 4.8353168368339539e-01</leafValues></_>
    <_>
      <internalNodes>
        0 -1 1537 1082172538 1581975745 537461009 1392508936 4262034
        992676131 50570443 1010516235</internalNodes>
      <leafValues>
        -4.8524883389472961e-01 4.1398936510086060e-01</leafValues></_>
    <_>
      <internalNodes>
        0 -1 165428 -694499173 -113032241 -1799355885 1471087686
        23261624 1493848939 2115059880 -1078998452</internalNodes>
      <leafValues>
        -4.5959845185279846e-01 4.2636713385581970e-01</leafValues></_></weakClassifiers></stage0>
</opencv_storage>
