<?xml version="1.0"?>
<opencv_storage>
<stage8>
  <maxWeakCount>18</maxWeakCount>
  <stageThreshold>-1.5856162309646606e+00</stageThreshold>
  <weakClassifiers>
    <_>
      <internalNodes>
        0 -1 146842 -5245473 -42999817 -72688321 -13922389 1650982843
        -536871169 1342115003 -542142545</internalNodes>
      <leafValues>
        -3.7472283840179443e-01 4.3514645099639893e-01</leafValues></_>
    <_>
      <internalNodes>
        0 -1 190439 -161812289 -1207788077 850460248 1035938023
        -1791992235 1061179439 -1275002951 -1975217005</internalNodes>
      <leafValues>
        -4.0633291006088257e-01 2.9399403929710388e-01</leafValues></_>
    <_>
      <internalNodes>
        0 -1 48078 1809036927 -638331652 -1425750660 -1593178617
        2139088501 -634920778 772790132 -68683823</internalNodes>
      <leafValues>
        -3.4882932901382446e-01 3.1436294317245483e-01</leafValues></_>
    <_>
      <internalNodes>
        0 -1 107966 716834327 -529769538 -2105019081 1785124314
        -2071020552 -2003148212 -1155069991 -33656604</internalNodes>
      <leafValues>
        -3.9568588137626648e-01 2.7881407737731934e-01</leafValues></_>
    <_>
      <internalNodes>
        0 -1 136726 1480589243 1280295161 -126949677 1350336592
        -1139829573 -695219499 2016467259 1298718570</internalNodes>
      <leafValues>
        -3.3561265468597412e-01 3.2560631632804871e-01</leafValues></_>
    <_>
      <internalNodes>
        0 -1 211811 1105251327 -1573896339 -67141827 -412627433
        1903510763 -536969475 1821140108 -6594870</internalNodes>
      <leafValues>
        -3.1830343604087830e-01 3.3882492780685425e-01</leafValues></_>
    <_>
      <internalNodes>
        0 -1 23993 255790874 2102247804 987826814 961783858 957496825
        957903464 138674892 2102235354</internalNodes>
      <leafValues>
        -4.3789806962013245e-01 2.6724296808242798e-01</leafValues></_>
    <_>
      <internalNodes>
        0 -1 249653 -179836827 -412361906 1413676980 886827691
        1609292285 -749174565 -209131792 -1124869382</internalNodes>
      <leafValues>
        -3.2372492551803589e-01 3.3175915479660034e-01</leafValues></_>
    <_>
      <internalNodes>
        0 -1 168472 1910551182 -826095542 640553324 30773724 -1299602776
        16844937 -531827476 50664702</internalNodes>
      <leafValues>
        -4.4306439161300659e-01 2.5179651379585266e-01</leafValues></_>
    <_>
      <internalNodes>
        0 -1 173250 -2135280091 -26572548 -519849639 -1154492271
        949135476 -1097722137 523041256 -1894896648</internalNodes>
      <leafValues>
        -3.9643248915672302e-01 2.7886393666267395e-01</leafValues></_>
    <_>
      <internalNodes>
        0 -1 182599 -119673693 1025113769 -537841899 -1146237022
        128258044 -268764232 -271315287 -1386620274</internalNodes>
      <leafValues>
        -3.2825291156768799e-01 3.5209363698959351e-01</leafValues></_>
    <_>
      <internalNodes>
        0 -1 9041 -471077205 1657727586 -1369103840 -227103044 123912572
        8314805 1833916404 -536873477</internalNodes>
      <leafValues>
        -3.2272607088088989e-01 3.6207333207130432e-01</leafValues></_>
    <_>
      <internalNodes>
        0 -1 115319 817765584 1893599974 840798999 -1214459404
        -664873552 -527288044 -288464004 -1508111076</internalNodes>
      <leafValues>
        -5.1939266920089722e-01 2.0752683281898499e-01</leafValues></_>
    <_>
      <internalNodes>
        0 -1 240377 -805970031 819199614 -318771316 -1871317572
        -1879314012 104648052 1006415882 -1258291298</internalNodes>
      <leafValues>
        -2.9696112871170044e-01 3.7479001283645630e-01</leafValues></_>
    <_>
      <internalNodes>
        0 -1 107781 -634179631 1958199270 -558039425 -806262798
        1761415007 2138570615 -50570004 2113634286</internalNodes>
      <leafValues>
        -3.2340055704116821e-01 3.4798806905746460e-01</leafValues></_>
    <_>
      <internalNodes>
        0 -1 174622 -174862653 34466735 -268784828 -147198035 -545294394
        -1358989524 1429596134 -538983913</internalNodes>
      <leafValues>
        -2.8186193108558655e-01 4.0120789408683777e-01</leafValues></_>
    <_>
      <internalNodes>
        0 -1 65286 1952166271 1998283084 453185657 1875067385 -133432405
        -203225686 -545015125 1901695210</internalNodes>
      <leafValues>
        -3.4126251935958862e-01 3.4578570723533630e-01</leafValues></_>
    <_>
      <internalNodes>
        0 -1 205971 -1607216816 -1708776672 2100525941 2037862524
        -1962381776 771686263 796450751 -1080345413</internalNodes>
      <leafValues>
        -3.0129563808441162e-01 4.0617927908897400e-01</leafValues></_></weakClassifiers></stage8>
</opencv_storage>
