<?xml version="1.0"?>
<opencv_storage>
<stage6>
  <maxWeakCount>15</maxWeakCount>
  <stageThreshold>-1.3134475946426392e+00</stageThreshold>
  <weakClassifiers>
    <_>
      <internalNodes>
        0 -1 147550 -404902109 -183375865 -619598529 -14700287 151686591
        -269020712 -816739397 -1314897</internalNodes>
      <leafValues>
        -5.0016397237777710e-01 4.0671792626380920e-01</leafValues></_>
    <_>
      <internalNodes>
        0 -1 189779 -832045635 -70394467 -510274251 -576279292
        1162343857 1502278367 1900750264 2125333386</internalNodes>
      <leafValues>
        -4.6175324916839600e-01 2.9756394028663635e-01</leafValues></_>
    <_>
      <internalNodes>
        0 -1 84240 -773852065 1358152789 -1448551441 -1313675186
        1062966567 -120337939 184777518 -7833770</internalNodes>
      <leafValues>
        -3.5306769609451294e-01 3.6682498455047607e-01</leafValues></_>
    <_>
      <internalNodes>
        0 -1 95984 -123685328 -1800099843 -595436312 797503962
        1277278652 -930059332 -1148673378 1069224370</internalNodes>
      <leafValues>
        -5.5978077650070190e-01 2.1753898262977600e-01</leafValues></_>
    <_>
      <internalNodes>
        0 -1 249601 1946116149 864697214 587104183 2092923871 -176165488
        -1398800513 -151333164 -185860805</internalNodes>
      <leafValues>
        -3.2374116778373718e-01 3.8608652353286743e-01</leafValues></_>
    <_>
      <internalNodes>
        0 -1 119236 -1001396151 -488816633 1116231094 -432514070
        306528533 -1117069161 1567171168 -234137740</internalNodes>
      <leafValues>
        -4.7604599595069885e-01 2.2374939918518066e-01</leafValues></_>
    <_>
      <internalNodes>
        0 -1 236925 1898815530 1500078661 1117524415 1573253469
        -1760974365 1629585424 2047604394 1600742314</internalNodes>
      <leafValues>
        -3.5960298776626587e-01 3.2062014937400818e-01</leafValues></_>
    <_>
      <internalNodes>
        0 -1 127363 -134283779 -814121987 651038173 761982222
        -1830832968 990049969 787361084 -305279690</internalNodes>
      <leafValues>
        -3.0518436431884766e-01 3.9061200618743896e-01</leafValues></_>
    <_>
      <internalNodes>
        0 -1 128798 -81288317 855699326 -303104195 -539525133
        -1521625698 -1970506244 1442149630 -859738032</internalNodes>
      <leafValues>
        -3.4224012494087219e-01 3.6218047142028809e-01</leafValues></_>
    <_>
      <internalNodes>
        0 -1 157433 -570635564 558654997 -1683655854 -1836688902
        1739670038 -485366906 -963657041 -1624766461</internalNodes>
      <leafValues>
        -4.6893849968910217e-01 2.6330980658531189e-01</leafValues></_>
    <_>
      <internalNodes>
        0 -1 125109 -82718564 2079804540 -2146286473 -1336344432
        1376833509 844775482 570850303 54206643</internalNodes>
      <leafValues>
        -4.3115448951721191e-01 2.8675630688667297e-01</leafValues></_>
    <_>
      <internalNodes>
        0 -1 9834 -496514653 -535899905 -1188691376 -1294300736
        1357646827 -304002992 -342662432 -134782382</internalNodes>
      <leafValues>
        -4.0139847993850708e-01 2.8678414225578308e-01</leafValues></_>
    <_>
      <internalNodes>
        0 -1 223571 -564779679 -1630141161 -1391783587 262014967
        -637949740 -1390673109 -389256004 263065407</internalNodes>
      <leafValues>
        -3.6180359125137329e-01 3.3859395980834961e-01</leafValues></_>
    <_>
      <internalNodes>
        0 -1 221957 1402602800 -608545299 -644659722 2089846978
        -391599651 -1156201321 -228274753 2105380</internalNodes>
      <leafValues>
        -5.9137189388275146e-01 1.9741927087306976e-01</leafValues></_>
    <_>
      <internalNodes>
        0 -1 174175 -722407549 649265436 1455746588 1025316740
        1087434562 973511057 -473838402 -433329781</internalNodes>
      <leafValues>
        -3.5772758722305298e-01 3.5368230938911438e-01</leafValues></_></weakClassifiers></stage6>
</opencv_storage>
