<?xml version="1.0"?>
<opencv_storage>
<stage14>
  <maxWeakCount>20</maxWeakCount>
  <stageThreshold>-1.5520564317703247e+00</stageThreshold>
  <weakClassifiers>
    <_>
      <internalNodes>
        0 -1 211899 -252656129 -247411851 -754814165 1464938819
        1441090021 -1286268431 -71566609 -72483925</internalNodes>
      <leafValues>
        -3.8377335667610168e-01 2.7837613224983215e-01</leafValues></_>
    <_>
      <internalNodes>
        0 -1 72352 -287508609 1741735630 -1633152495 -358986538
        -776542974 1244056625 -1213530862 -289677475</internalNodes>
      <leafValues>
        -3.7801900506019592e-01 2.5310513377189636e-01</leafValues></_>
    <_>
      <internalNodes>
        0 -1 62037 -520107409 -765788705 -1057865258 -226301548
        1248274134 627114023 1843687588 -134752304</internalNodes>
      <leafValues>
        -3.4362998604774475e-01 2.5229993462562561e-01</leafValues></_>
    <_>
      <internalNodes>
        0 -1 189894 1544483292 -1207772771 -368536300 -963992192
        1124446192 1558763467 2137534416 1619658378</internalNodes>
      <leafValues>
        -4.2553588747978210e-01 2.4492777884006500e-01</leafValues></_>
    <_>
      <internalNodes>
        0 -1 250614 124105243 1929218968 252050297 -772421937 1506583291
        -125095420 -582429797 1235563163</internalNodes>
      <leafValues>
        -3.6230802536010742e-01 2.2564634680747986e-01</leafValues></_>
    <_>
      <internalNodes>
        0 -1 190788 -133291263 -827849951 -1070756083 -992959219
        -383933662 -1342996342 -90015145 -819766425</internalNodes>
      <leafValues>
        -3.0838483572006226e-01 2.9646459221839905e-01</leafValues></_>
    <_>
      <internalNodes>
        0 -1 106011 185242035 -21087296 -1343259073 -618234508
        1019166125 -826179985 -432554371 -813990541</internalNodes>
      <leafValues>
        -2.9443961381912231e-01 3.0476039648056030e-01</leafValues></_>
    <_>
      <internalNodes>
        0 -1 131618 1443675126 -91582440 -581912624 111739924
        -1349801030 -239661034 -95813121 1000192174</internalNodes>
      <leafValues>
        -3.0312263965606689e-01 3.0799102783203125e-01</leafValues></_>
    <_>
      <internalNodes>
        0 -1 126771 852262836 342249432 1856100597 1347037264 29032324
        -1115257383 240984125 1608170164</internalNodes>
      <leafValues>
        -4.1146001219749451e-01 2.2269934415817261e-01</leafValues></_>
    <_>
      <internalNodes>
        0 -1 96585 -486912461 -68288790 1140768694 -215717898 -499554568
        -674861841 1231910619 -943759878</internalNodes>
      <leafValues>
        -2.6510253548622131e-01 3.5251840949058533e-01</leafValues></_>
    <_>
      <internalNodes>
        0 -1 203757 581436433 -884209186 -1056711355 -1378084143
        -1328768699 -90025285 -1175570599 764282684</internalNodes>
      <leafValues>
        -4.6845576167106628e-01 2.3578816652297974e-01</leafValues></_>
    <_>
      <internalNodes>
        0 -1 107406 -763958690 1934259991 -913227948 -1524233153
        -1215191302 1987250273 829494289 -169347169</internalNodes>
      <leafValues>
        -3.8179573416709900e-01 2.3574784398078918e-01</leafValues></_>
    <_>
      <internalNodes>
        0 -1 174747 843041742 99671442 -1793812682 -34585792 1079641130
        1478718381 1489009266 222326629</internalNodes>
      <leafValues>
        -4.5984303951263428e-01 2.2917023301124573e-01</leafValues></_>
    <_>
      <internalNodes>
        0 -1 165661 1139565987 -864235217 805606161 -1574124117
        151809448 216625514 1125272776 1677641602</internalNodes>
      <leafValues>
        -4.5198282599449158e-01 2.1717032790184021e-01</leafValues></_>
    <_>
      <internalNodes>
        0 -1 223845 152714768 -1839464202 -725277027 1941598649
        940662965 -1156839200 -1280409351 -1618397720</internalNodes>
      <leafValues>
        -3.8231801986694336e-01 2.6264786720275879e-01</leafValues></_>
    <_>
      <internalNodes>
        0 -1 7978 716618730 4905422 -432809658 -991002496 824927538
        1714567912 33714801 1182650613</internalNodes>
      <leafValues>
        -6.0598051548004150e-01 1.4326919615268707e-01</leafValues></_>
    <_>
      <internalNodes>
        0 -1 50389 592142863 464803106 -1459036419 689684753 486217981
        671629360 -936820692 1954191668</internalNodes>
      <leafValues>
        -4.1845753788948059e-01 2.3293928802013397e-01</leafValues></_>
    <_>
      <internalNodes>
        0 -1 183615 -653118989 942248822 -42034582 154762104 1046218590
        -1149406153 -692496070 -481831565</internalNodes>
      <leafValues>
        -2.8838050365447998e-01 3.5142976045608521e-01</leafValues></_>
    <_>
      <internalNodes>
        0 -1 127141 -559653517 2031710207 -542900227 -1220572133
        804781974 -805372035 -606698081 -806900301</internalNodes>
      <leafValues>
        -2.4482189118862152e-01 4.2547217011451721e-01</leafValues></_>
    <_>
      <internalNodes>
        0 -1 71318 -1707357645 -1670988086 -1618133020 2004067633
        -415301716 -1002115154 1298134987 -811768419</internalNodes>
      <leafValues>
        -2.5682881474494934e-01 4.1713142395019531e-01</leafValues></_></weakClassifiers></stage14>
</opencv_storage>
