<?xml version="1.0"?>
<opencv_storage>
<stage4>
  <maxWeakCount>15</maxWeakCount>
  <stageThreshold>-1.5735055208206177e+00</stageThreshold>
  <weakClassifiers>
    <_>
      <internalNodes>
        0 -1 138208 -422596861 -10568441 -640565281 -44199907 -825312274
        -25058683 -1568019521 -1057537</internalNodes>
      <leafValues>
        -5.3257977962493896e-01 4.3073248863220215e-01</leafValues></_>
    <_>
      <internalNodes>
        0 -1 95315 -587399173 -91107636 -793198400 -667172672 -270867661
        -495793577 -96808912 -12848902</internalNodes>
      <leafValues>
        -4.5391970872879028e-01 3.7137582898139954e-01</leafValues></_>
    <_>
      <internalNodes>
        0 -1 211982 -792149521 315932278 1986822143 -781844767
        1974734185 -8962441 -5325586 -72364337</internalNodes>
      <leafValues>
        -2.9360446333885193e-01 4.3303617835044861e-01</leafValues></_>
    <_>
      <internalNodes>
        0 -1 107642 -281020429 223674144 -1408434187 2111926289
        1742220212 1726183971 -402329611 2112749275</internalNodes>
      <leafValues>
        -3.6096346378326416e-01 3.5170909762382507e-01</leafValues></_>
    <_>
      <internalNodes>
        0 -1 146521 -142999617 1205136372 1262735965 1599515322
        -968953446 -23167081 -1962500084 1585359416</internalNodes>
      <leafValues>
        -3.5686072707176208e-01 3.5571521520614624e-01</leafValues></_>
    <_>
      <internalNodes>
        0 -1 254826 1129398280 1531541196 826560587 1574793356
        -494762354 -1718921208 1707654063 2065543210</internalNodes>
      <leafValues>
        -4.5766526460647583e-01 2.5741603970527649e-01</leafValues></_>
    <_>
      <internalNodes>
        0 -1 249220 -134243055 391903509 -2097154412 -1847066753
        -1652559596 1937112636 -1434474232 -2097441</internalNodes>
      <leafValues>
        -2.8736066818237305e-01 4.4240602850914001e-01</leafValues></_>
    <_>
      <internalNodes>
        0 -1 8216 -2066750065 -1564026140 -731456014 -335842334
        265022362 609113175 293552631 1608511727</internalNodes>
      <leafValues>
        -3.7312313914299011e-01 3.3880233764648438e-01</leafValues></_>
    <_>
      <internalNodes>
        0 -1 181999 -94577163 2078600662 -640826125 -711566944
        1590113953 1325789751 1597113758 1754168992</internalNodes>
      <leafValues>
        -4.3102055788040161e-01 3.0687212944030762e-01</leafValues></_>
    <_>
      <internalNodes>
        0 -1 204524 -197100104 1802622564 2035710201 1169347996
        -1073706839 -1399041653 1368490120 -645430902</internalNodes>
      <leafValues>
        -4.5193633437156677e-01 2.7641668915748596e-01</leafValues></_>
    <_>
      <internalNodes>
        0 -1 72767 -288633327 -135655200 -736279917 -33856826 -938862814
        1653135672 -237768234 -818196876</internalNodes>
      <leafValues>
        -3.9831727743148804e-01 3.2174262404441833e-01</leafValues></_>
    <_>
      <internalNodes>
        0 -1 127789 -686438256 -1871294411 -1834315088 1259640056
        447665569 -364394856 -552969288 1483930320</internalNodes>
      <leafValues>
        -4.9242588877677917e-01 2.7473604679107666e-01</leafValues></_>
    <_>
      <internalNodes>
        0 -1 13663 -206580998 -1755501822 270356564 520505932
        -1320046354 -1232957303 25854378 663707867</internalNodes>
      <leafValues>
        -3.6673861742019653e-01 3.6821290850639343e-01</leafValues></_>
    <_>
      <internalNodes>
        0 -1 166184 312747009 -2133081519 268616535 -572145195
        1799304189 -880443247 2081116581 -1963489812</internalNodes>
      <leafValues>
        -3.9708682894706726e-01 3.3077651262283325e-01</leafValues></_>
    <_>
      <internalNodes>
        0 -1 21167 -386964497 1869858350 586305740 -1171018268
        -1821378885 124248131 -1241788229 -164114125</internalNodes>
      <leafValues>
        -2.9764583706855774e-01 4.3194037675857544e-01</leafValues></_></weakClassifiers></stage4>
</opencv_storage>
