<?xml version="1.0"?>
<opencv_storage>
<stage5>
  <maxWeakCount>14</maxWeakCount>
  <stageThreshold>-1.4082242250442505e+00</stageThreshold>
  <weakClassifiers>
    <_>
      <internalNodes>
        0 -1 147800 -805310961 1971322683 -33591333 -12591313 -967930417
        -75818981 -273158145 -4097</internalNodes>
      <leafValues>
        -4.6611177921295166e-01 4.8608535528182983e-01</leafValues></_>
    <_>
      <internalNodes>
        0 -1 127447 -2097345 1442198549 -547364451 301368120 -1533104594
        2038073186 138448521 995625734</internalNodes>
      <leafValues>
        -4.9043920636177063e-01 2.8430888056755066e-01</leafValues></_>
    <_>
      <internalNodes>
        0 -1 60344 -319096233 -218184500 539684869 -390872939 -288500953
        -15815451 -1778074364 -588516229</internalNodes>
      <leafValues>
        -4.2038440704345703e-01 3.1945475935935974e-01</leafValues></_>
    <_>
      <internalNodes>
        0 -1 15675 -600274792 -1946679991 1095221655 2068780569
        897694395 -1708157235 -1152961889 592775307</internalNodes>
      <leafValues>
        -4.4495373964309692e-01 3.1904995441436768e-01</leafValues></_>
    <_>
      <internalNodes>
        0 -1 197717 1086521010 1914763444 -561341148 -1090038778
        1204120268 2028103851 197081228 789794315</internalNodes>
      <leafValues>
        -5.3546714782714844e-01 2.1887643635272980e-01</leafValues></_>
    <_>
      <internalNodes>
        0 -1 138606 -1073799181 925708059 -285248265 -175032527
        -1329676353 -1378406529 -1842308172 -833224801</internalNodes>
      <leafValues>
        -3.4504282474517822e-01 3.8532620668411255e-01</leafValues></_>
    <_>
      <internalNodes>
        0 -1 49879 -372273777 -355282521 1481384080 -221756414
        1911232315 1227901455 -789359916 -202149294</internalNodes>
      <leafValues>
        -3.6572241783142090e-01 3.3638623356819153e-01</leafValues></_>
    <_>
      <internalNodes>
        0 -1 166309 -1806699005 42709923 -538186087 -238160980
        -1094717971 -866189314 -705927705 -674541861</internalNodes>
      <leafValues>
        -3.2347312569618225e-01 3.7956711649894714e-01</leafValues></_>
    <_>
      <internalNodes>
        0 -1 157281 -76555289 -1221983817 -393685004 1024771379
        811365183 -1085525971 -2135651617 531084571</internalNodes>
      <leafValues>
        -3.5929700732231140e-01 3.4635159373283386e-01</leafValues></_>
    <_>
      <internalNodes>
        0 -1 240943 -524618473 855074647 -18874564 -377507996 1600036823
        918486477 -729878384 -132449798</internalNodes>
      <leafValues>
        -3.3913564682006836e-01 3.7510854005813599e-01</leafValues></_>
    <_>
      <internalNodes>
        0 -1 30843 218137128 1071701081 503342842 -1348155036 885193436
        -88713066 -1613559075 103022596</internalNodes>
      <leafValues>
        -6.4604109525680542e-01 1.8445584177970886e-01</leafValues></_>
    <_>
      <internalNodes>
        0 -1 49067 -354956649 -892944058 1780369330 -227091404
        1644918731 -914185519 1378169554 -171486796</internalNodes>
      <leafValues>
        -3.5665801167488098e-01 3.3828651905059814e-01</leafValues></_>
    <_>
      <internalNodes>
        0 -1 61284 -121897865 -303893250 -1074336770 -273551629
        -718047323 -1155334659 1466588414 2075916063</internalNodes>
      <leafValues>
        -2.8771024942398071e-01 4.2649874091148376e-01</leafValues></_>
    <_>
      <internalNodes>
        0 -1 22190 -202693889 -1681661788 1163609507 59180451 -124137426
        168974374 2038717405 2077315775</internalNodes>
      <leafValues>
        -3.5818073153495789e-01 3.7434262037277222e-01</leafValues></_></weakClassifiers></stage5>
</opencv_storage>
