<?xml version="1.0"?>
<opencv_storage>
<stage2>
  <maxWeakCount>12</maxWeakCount>
  <stageThreshold>-1.4632625579833984e+00</stageThreshold>
  <weakClassifiers>
    <_>
      <internalNodes>
        0 -1 138073 -302010609 -44322277 -268488897 -12640449 -807415921
        -360710306 -807415921 -5255281</internalNodes>
      <leafValues>
        -5.3878158330917358e-01 6.0000002384185791e-01</leafValues></_>
    <_>
      <internalNodes>
        0 -1 136762 -261 -556014369 -2072057697 -858079028 -903677135
        -1919203189 2105360 -74784656</internalNodes>
      <leafValues>
        -4.7675010561943054e-01 3.8836792111396790e-01</leafValues></_>
    <_>
      <internalNodes>
        0 -1 197704 -640890660 1580471320 1568382365 252535343 69503385
        -1120909195 -2069397073 -1078358</internalNodes>
      <leafValues>
        -4.5700463652610779e-01 3.7386405467987061e-01</leafValues></_>
    <_>
      <internalNodes>
        0 -1 106406 -570427855 -723993188 1284167103 293665748
        -1457014727 -1708153601 1056985514 2080065722</internalNodes>
      <leafValues>
        -4.1824644804000854e-01 3.6548751592636108e-01</leafValues></_>
    <_>
      <internalNodes>
        0 -1 147773 1162338727 61276058 -278138881 -573703940 1690791340
        -1631912276 -446902789 -1614037550</internalNodes>
      <leafValues>
        -3.1743744015693665e-01 4.4743660092353821e-01</leafValues></_>
    <_>
      <internalNodes>
        0 -1 84295 2146398207 -12902603 522017659 -1078100163 801057983
        -138666146 361568255 -257</internalNodes>
      <leafValues>
        -2.6142904162406921e-01 5.7558780908584595e-01</leafValues></_>
    <_>
      <internalNodes>
        0 -1 197265 1278402013 -1638344737 -1014494947 -23598284
        555339440 -574579 2072712093 1050824466</internalNodes>
      <leafValues>
        -4.5983982086181641e-01 3.1088733673095703e-01</leafValues></_>
    <_>
      <internalNodes>
        0 -1 157406 -1105985613 2107017077 1624571088 1434472832
        -1729839114 194394507 -1328377611 296588455</internalNodes>
      <leafValues>
        -4.6703648567199707e-01 3.0972567200660706e-01</leafValues></_>
    <_>
      <internalNodes>
        0 -1 83813 -1757745375 -278220996 -335708805 2130325280
        -1222939651 -1090242177 786909145 -954764001</internalNodes>
      <leafValues>
        -3.5552310943603516e-01 4.0346786379814148e-01</leafValues></_>
    <_>
      <internalNodes>
        0 -1 137481 1914029911 1066831978 -1459485267 768402969
        1745661056 1063317542 -1935914836 677153960</internalNodes>
      <leafValues>
        -5.4442363977432251e-01 2.5320836901664734e-01</leafValues></_>
    <_>
      <internalNodes>
        0 -1 128868 -195656156 -771651314 -796276174 -486354222
        1079740997 1483442195 380362137 -651428025</internalNodes>
      <leafValues>
        -5.3436702489852905e-01 2.6470184326171875e-01</leafValues></_>
    <_>
      <internalNodes>
        0 -1 174090 -858456204 -207316005 -1868112303 889436571
        1392578055 -1979449204 -214885957 473501875</internalNodes>
      <leafValues>
        -5.6680214405059814e-01 2.7391570806503296e-01</leafValues></_></weakClassifiers></stage2>
</opencv_storage>
