<?xml version="1.0"?>
<opencv_storage>
<stage1>
  <maxWeakCount>10</maxWeakCount>
  <stageThreshold>-1.6655510663986206e+00</stageThreshold>
  <weakClassifiers>
    <_>
      <internalNodes>
        0 -1 138208 -286281977 -8667385 -16393 -44188897 -359666193
        -1091175744 -1881297989 -257</internalNodes>
      <leafValues>
        -5.6199306249618530e-01 6.8665379285812378e-01</leafValues></_>
    <_>
      <internalNodes>
        0 -1 174223 -53160716 -35340076 -619587203 -8249718 1146372513
        -1138491328 92340360 -7895934</internalNodes>
      <leafValues>
        -5.9775108098983765e-01 4.0252369642257690e-01</leafValues></_>
    <_>
      <internalNodes>
        0 -1 106083 -41943113 -100678410 2032309113 -1872068494
        -30499529 -73415557 -1979516870 -75760454</internalNodes>
      <leafValues>
        -3.8135430216789246e-01 5.4539376497268677e-01</leafValues></_>
    <_>
      <internalNodes>
        0 -1 128703 2122313495 926367255 -765143659 361771349
        -1163546706 -1214244638 536918736 92631087</internalNodes>
      <leafValues>
        -4.9613201618194580e-01 3.5631528496742249e-01</leafValues></_>
    <_>
      <internalNodes>
        0 -1 173707 -874057796 -66342768 -1124035630 -1677448160
        673754024 501972195 1855465352 680919976</internalNodes>
      <leafValues>
        -5.8554810285568237e-01 3.0393552780151367e-01</leafValues></_>
    <_>
      <internalNodes>
        0 -1 157195 -437029768 454881422 -1659473452 696751387
        -1598880371 -196672511 -1889849925 -1942016197</internalNodes>
      <leafValues>
        -5.1017290353775024e-01 3.0241954326629639e-01</leafValues></_>
    <_>
      <internalNodes>
        0 -1 157501 -2085617916 40611818 2038099841 -541075982
        1340936650 -1899042978 -428945957 -2359605</internalNodes>
      <leafValues>
        -3.4627595543861389e-01 4.8218750953674316e-01</leafValues></_>
    <_>
      <internalNodes>
        0 -1 190039 -414778186 -613362864 -653796033 530995854
        1662141345 -606348464 1212286984 535758987</internalNodes>
      <leafValues>
        -4.8255723714828491e-01 3.3424910902976990e-01</leafValues></_>
    <_>
      <internalNodes>
        0 -1 4348 -14890756 2118717084 352993636 696595577 190397106
        832520633 1043534271 199167051</internalNodes>
      <leafValues>
        -5.5630362033843994e-01 3.1115427613258362e-01</leafValues></_>
    <_>
      <internalNodes>
        0 -1 203738 -1542975724 -672086576 -1147167361 -35859183
        -1114298095 -81248179 998437084 -1879168903</internalNodes>
      <leafValues>
        -5.4615020751953125e-01 2.9801386594772339e-01</leafValues></_></weakClassifiers></stage1>
</opencv_storage>
