<?xml version="1.0"?>
<opencv_storage>
<stage15>
  <maxWeakCount>20</maxWeakCount>
  <stageThreshold>-1.5637943744659424e+00</stageThreshold>
  <weakClassifiers>
    <_>
      <internalNodes>
        0 -1 127758 -1105872449 -545134723 -1078984833 -543080709
        -1134706945 -1073876996 -1087635457 -5521505</internalNodes>
      <leafValues>
        -3.1491136550903320e-01 4.0855106711387634e-01</leafValues></_>
    <_>
      <internalNodes>
        0 -1 253761 62879537 1127193455 697817213 395298047 -69209276
        -260060405 -1045106508 -184617989</internalNodes>
      <leafValues>
        -3.3570832014083862e-01 2.8987783193588257e-01</leafValues></_>
    <_>
      <internalNodes>
        0 -1 84173 -1451177109 -22875958 1963413947 -540749982
        -1360974747 -808462165 193712983 -671384205</internalNodes>
      <leafValues>
        -2.9140537977218628e-01 2.9824057221412659e-01</leafValues></_>
    <_>
      <internalNodes>
        0 -1 147466 -598285570 -41235057 -992419353 1899343245 269718673
        325455891 428414271 -1615986145</internalNodes>
      <leafValues>
        -3.8295415043830872e-01 2.0837725698947906e-01</leafValues></_>
    <_>
      <internalNodes>
        0 -1 164914 -607628556 1146113079 273702500 -1585262107
        -721424157 1753070320 519443731 951843984</internalNodes>
      <leafValues>
        -3.2276141643524170e-01 3.0664968490600586e-01</leafValues></_>
    <_>
      <internalNodes>
        0 -1 27144 -45688622 -649262910 -419118836 -1049760796
        -485887302 1401821256 1397199138 455016846</internalNodes>
      <leafValues>
        -3.3976814150810242e-01 2.4680319428443909e-01</leafValues></_>
    <_>
      <internalNodes>
        0 -1 181673 -1470350285 -1463359848 -988596747 -2109221548
        135998994 -1430618101 995910000 -1143076356</internalNodes>
      <leafValues>
        -3.4905275702476501e-01 2.6836508512496948e-01</leafValues></_>
    <_>
      <internalNodes>
        0 -1 229134 -29702407 1595294119 1929467247 335194911
        -1051358015 18362697 -911292996 -1363527115</internalNodes>
      <leafValues>
        -3.5534653067588806e-01 2.4168743193149567e-01</leafValues></_>
    <_>
      <internalNodes>
        0 -1 116935 1591619499 408895740 566423739 817426558 1141833489
        -148186035 722107778 1097490426</internalNodes>
      <leafValues>
        -4.0912988781929016e-01 2.3889683187007904e-01</leafValues></_>
    <_>
      <internalNodes>
        0 -1 85464 -900292801 -393295339 269095927 1379064036 2103372628
        -1559625694 1756697332 -309289536</internalNodes>
      <leafValues>
        -3.6387184262275696e-01 2.5492873787879944e-01</leafValues></_>
    <_>
      <internalNodes>
        0 -1 60824 -186192206 -1357150116 -49196718 -15179022 278939550
        12621870 -794469273 -137660682</internalNodes>
      <leafValues>
        -2.8852656483650208e-01 3.1396073102951050e-01</leafValues></_>
    <_>
      <internalNodes>
        0 -1 183589 1098639025 411314537 2143238919 1513611132
        -1364947023 -1712267612 -1082955909 -9717765</internalNodes>
      <leafValues>
        -2.6499438285827637e-01 3.6305066943168640e-01</leafValues></_>
    <_>
      <internalNodes>
        0 -1 13932 -1591693360 -1812414002 -254000609 175672544
        2113198813 -672644709 -868365655 470814804</internalNodes>
      <leafValues>
        -5.2636551856994629e-01 1.7293158173561096e-01</leafValues></_>
    <_>
      <internalNodes>
        0 -1 249574 705627680 -103396364 -346275553 2027171856 -95484015
        -603617269 -117308656 -97492200</internalNodes>
      <leafValues>
        -4.4770115613937378e-01 2.0556391775608063e-01</leafValues></_>
    <_>
      <internalNodes>
        0 -1 129455 -2025852557 2054245394 67698896 -1823358532
        322029040 -521890915 -60607403 853001080</internalNodes>
      <leafValues>
        -3.6834031343460083e-01 2.5821766257286072e-01</leafValues></_>
    <_>
      <internalNodes>
        0 -1 224876 -444259824 632721586 134251510 1801032290 2143253086
        1205027337 -1368475656 544373366</internalNodes>
      <leafValues>
        -4.5708626508712769e-01 2.0707568526268005e-01</leafValues></_>
    <_>
      <internalNodes>
        0 -1 183547 54651657 721459229 319065050 -1946370626 435063198
        -1378156538 327493854 1375335384</internalNodes>
      <leafValues>
        -3.7078717350959778e-01 2.5593912601470947e-01</leafValues></_>
    <_>
      <internalNodes>
        0 -1 212637 -751122944 430833689 1947235670 -204577639 584896981
        -1987850784 1682686461 -1155264104</internalNodes>
      <leafValues>
        -3.3608645200729370e-01 2.8942865133285522e-01</leafValues></_>
    <_>
      <internalNodes>
        0 -1 166198 -772806848 41349769 1640058931 -27275251 655446968
        -2070949757 -1867960150 -947161013</internalNodes>
      <leafValues>
        -3.3724805712699890e-01 2.9540330171585083e-01</leafValues></_>
    <_>
      <internalNodes>
        0 -1 11452 1718894718 2093989839 1103399029 2087588046
        1389237792 2030848783 -1163039186 671781527</internalNodes>
      <leafValues>
        -4.1809412837028503e-01 2.2711968421936035e-01</leafValues></_></weakClassifiers></stage15>
</opencv_storage>
