<?xml version="1.0"?>
<opencv_storage>
<stage17>
  <maxWeakCount>19</maxWeakCount>
  <stageThreshold>-1.3289430141448975e+00</stageThreshold>
  <weakClassifiers>
    <_>
      <internalNodes>
        0 -1 96836 -1009899729 -529530559 -233767074 -251162171
        -1450137337 -300904441 403306979 -37189479</internalNodes>
      <leafValues>
        -5.6933879852294922e-01 1.1886643618345261e-01</leafValues></_>
    <_>
      <internalNodes>
        0 -1 182950 1564242100 1062568216 -1935631852 -178871406
        -130164683 -374783224 -1594758731 234869035</internalNodes>
      <leafValues>
        -5.2897429466247559e-01 1.6585206985473633e-01</leafValues></_>
    <_>
      <internalNodes>
        0 -1 137400 2026298623 -759123500 1104196468 21234484 608925364
        21721492 584072756 -1969686564</internalNodes>
      <leafValues>
        -3.7961751222610474e-01 2.6934766769409180e-01</leafValues></_>
    <_>
      <internalNodes>
        0 -1 245665 -202388837 -72351917 -1317088856 1892981228
        134199007 -890800187 1333780208 -1799381296</internalNodes>
      <leafValues>
        -2.8381812572479248e-01 3.3682987093925476e-01</leafValues></_>
    <_>
      <internalNodes>
        0 -1 148473 40290483 -1299574566 1355633017 1998379200
        1055288278 -2107497586 1187578288 -17144876</internalNodes>
      <leafValues>
        -3.3091640472412109e-01 2.9108095169067383e-01</leafValues></_>
    <_>
      <internalNodes>
        0 -1 127070 -1399901937 -1362193304 286497139 -271678288
        -2070047387 -855241678 234328765 -1909305259</internalNodes>
      <leafValues>
        -3.6636197566986084e-01 2.4318329989910126e-01</leafValues></_>
    <_>
      <internalNodes>
        0 -1 229905 1296420964 1813237808 -970133059 -2116578724
        -898870268 -1172364989 -88274212 -1975796357</internalNodes>
      <leafValues>
        -3.3414494991302490e-01 2.7775862812995911e-01</leafValues></_>
    <_>
      <internalNodes>
        0 -1 8017 -537800741 -11564913 2138901296 -614397369 -970928420
        1333735719 -1647229102 -86252849</internalNodes>
      <leafValues>
        -1.8564227223396301e-01 4.8522841930389404e-01</leafValues></_>
    <_>
      <internalNodes>
        0 -1 218287 -84775289 -1828302058 33706002 1090692098 150063344
        -1476031975 -355563090 -1962607482</internalNodes>
      <leafValues>
        -3.5326790809631348e-01 2.8554835915565491e-01</leafValues></_>
    <_>
      <internalNodes>
        0 -1 174175 2126570144 965932634 -200219152 1837405444
        1176636384 436390082 -217871704 -1959703967</internalNodes>
      <leafValues>
        -3.8103559613227844e-01 2.5616705417633057e-01</leafValues></_>
    <_>
      <internalNodes>
        0 -1 17511 -149032773 1542569840 770940484 1304805999
        -1298488385 -1361677101 -1291846517 455845674</internalNodes>
      <leafValues>
        -2.6821467280387878e-01 3.6764720082283020e-01</leafValues></_>
    <_>
      <internalNodes>
        0 -1 229552 837462647 -1418981773 251526847 -583041027 670651665
        -17896079 -58834961 -1965484611</internalNodes>
      <leafValues>
        -2.8454813361167908e-01 3.6571094393730164e-01</leafValues></_>
    <_>
      <internalNodes>
        0 -1 174105 -562564452 -1198517625 964853877 882014479
        -1391421661 -1507829695 324211102 945757115</internalNodes>
      <leafValues>
        -3.4521129727363586e-01 3.0066740512847900e-01</leafValues></_>
    <_>
      <internalNodes>
        0 -1 96091 -147435945 -68356374 -140034124 -3768333 -1359511895
        -135285017 657684919 -809534085</internalNodes>
      <leafValues>
        -2.7254071831703186e-01 4.0336298942565918e-01</leafValues></_>
    <_>
      <internalNodes>
        0 -1 148136 -123759981 -1819151623 -1275072551 -409862233
        -146889761 -1090601027 1542561773 -1879325288</internalNodes>
      <leafValues>
        -1.9262109696865082e-01 4.9728712439537048e-01</leafValues></_>
    <_>
      <internalNodes>
        0 -1 71790 -329581715 -650263772 -522143159 187404006 1782314828
        172838316 -1901326836 -359891372</internalNodes>
      <leafValues>
        -4.3007403612136841e-01 2.4897858500480652e-01</leafValues></_>
    <_>
      <internalNodes>
        0 -1 249667 -726207435 1265852406 -268501001 1478766078
        -545287703 -864264354 -253833040 -1056967110</internalNodes>
      <leafValues>
        -3.0296745896339417e-01 3.4983286261558533e-01</leafValues></_>
    <_>
      <internalNodes>
        0 -1 35873 134821876 269629717 16855954 394728926 -348070932
        591958112 1742737818 -347480838</internalNodes>
      <leafValues>
        -3.9462018013000488e-01 2.6469096541404724e-01</leafValues></_>
    <_>
      <internalNodes>
        0 -1 10999 -319042353 569322615 754349245 439565132 -151559554
        1867972443 2113830008 -1023231944</internalNodes>
      <leafValues>
        -2.8999692201614380e-01 3.7220934033393860e-01</leafValues></_></weakClassifiers></stage17>
</opencv_storage>
