<?xml version="1.0"?>
<opencv_storage>
<stage11>
  <maxWeakCount>19</maxWeakCount>
  <stageThreshold>-1.5313020944595337e+00</stageThreshold>
  <weakClassifiers>
    <_>
      <internalNodes>
        0 -1 137640 -209653365 825922327 -1008628761 923248676
        -898381685 861452337 -359544695 1060883631</internalNodes>
      <leafValues>
        -4.8148149251937866e-01 2.2897972166538239e-01</leafValues></_>
    <_>
      <internalNodes>
        0 -1 204749 1080097783 -79255041 -509346373 -8422474 1342448565
        -72712023 1438731916 1559184778</internalNodes>
      <leafValues>
        -4.2158016562461853e-01 2.4438498914241791e-01</leafValues></_>
    <_>
      <internalNodes>
        0 -1 198061 -331954269 -526872775 -1126535645 -1030590719
        -1912916154 -2081554569 -8388873 -636758542</internalNodes>
      <leafValues>
        -3.0706921219825745e-01 3.2419875264167786e-01</leafValues></_>
    <_>
      <internalNodes>
        0 -1 218735 1374401247 -643179521 -427821316 -1897137411
        1409119743 -545818757 -170921832 -266077421</internalNodes>
      <leafValues>
        -2.0588110387325287e-01 4.4398924708366394e-01</leafValues></_>
    <_>
      <internalNodes>
        0 -1 165412 -69604782 919790735 1404944599 801686710 1511060473
        760674650 1661180088 218824412</internalNodes>
      <leafValues>
        -4.3621802330017090e-01 2.3021160066127777e-01</leafValues></_>
    <_>
      <internalNodes>
        0 -1 73588 -897692853 -179045953 -1429994756 -18988920
        1475705601 1769480480 804349885 -1097276</internalNodes>
      <leafValues>
        -3.6254069209098816e-01 2.7820917963981628e-01</leafValues></_>
    <_>
      <internalNodes>
        0 -1 85941 1799324471 -1687134902 2063595506 -672925058
        218103805 -1379942865 2121475156 -571480474</internalNodes>
      <leafValues>
        -2.6875141263008118e-01 3.7891003489494324e-01</leafValues></_>
    <_>
      <internalNodes>
        0 -1 190554 -1688337742 862208438 849188148 -4253253 -1033846275
        -348763802 -277432146 -967929845</internalNodes>
      <leafValues>
        -3.8232290744781494e-01 2.5922065973281860e-01</leafValues></_>
    <_>
      <internalNodes>
        0 -1 21570 1969289082 -514086704 1299136329 -433781056
        -651641521 -522333109 722103664 -347949739</internalNodes>
      <leafValues>
        -3.6059507727622986e-01 2.8249728679656982e-01</leafValues></_>
    <_>
      <internalNodes>
        0 -1 544 1283246302 -764296451 1931736275 -1043136200 1183824874
        -372734464 302849015 532355310</internalNodes>
      <leafValues>
        -4.2141601443290710e-01 2.4166306853294373e-01</leafValues></_>
    <_>
      <internalNodes>
        0 -1 147640 1468262340 261001658 1283581393 260520044 -506322512
        -1667324410 -300184949 -1884597863</internalNodes>
      <leafValues>
        -3.1938880681991577e-01 3.1667092442512512e-01</leafValues></_>
    <_>
      <internalNodes>
        0 -1 113686 -1672988518 -1090115073 -2092134731 -1380854329
        -1518414859 -170695862 -354602309 553699076</internalNodes>
      <leafValues>
        -4.4213452935218811e-01 2.2042125463485718e-01</leafValues></_>
    <_>
      <internalNodes>
        0 -1 181283 -1081324475 -475565596 -108418851 -167632800
        301378224 1542318163 957244304 1286472704</internalNodes>
      <leafValues>
        -5.4577517509460449e-01 1.9705305993556976e-01</leafValues></_>
    <_>
      <internalNodes>
        0 -1 263192 -135115 2126580287 -1363675465 1433665523 1333542468
        929447253 1324963213 -214237370</internalNodes>
      <leafValues>
        -3.1801509857177734e-01 3.4340095520019531e-01</leafValues></_>
    <_>
      <internalNodes>
        0 -1 119335 -694165309 -70467982 -1632108811 338882431
        -1795773550 -144375945 1408320884 -207440892</internalNodes>
      <leafValues>
        -2.9074206948280334e-01 3.5882776975631714e-01</leafValues></_>
    <_>
      <internalNodes>
        0 -1 204280 -630835197 -419545291 -100762185 -1391468751
        472887060 -1635877135 -1711303411 -1981144241</internalNodes>
      <leafValues>
        -3.1891468167304993e-01 3.2789120078086853e-01</leafValues></_>
    <_>
      <internalNodes>
        0 -1 182114 -658048558 -975825012 -503063119 -1398352992
        1231987688 1945761950 511781578 749717376</internalNodes>
      <leafValues>
        -4.2547073960304260e-01 2.3689165711402893e-01</leafValues></_>
    <_>
      <internalNodes>
        0 -1 8852 -202117893 -316429452 1953896176 -345701664 642862494
        1088285281 -34120978 -137396277</internalNodes>
      <leafValues>
        -2.3784403502941132e-01 4.3766692280769348e-01</leafValues></_>
    <_>
      <internalNodes>
        0 -1 164539 -1498544557 -897174240 -1781447311 -573687300
        -1894894727 -650528581 113299961 -1150739335</internalNodes>
      <leafValues>
        -3.7307170033454895e-01 2.7892476320266724e-01</leafValues></_></weakClassifiers></stage11>
</opencv_storage>
